dN/dS,LRT,p-value,Log(L)
2.731941657024047e-16,53.34486641885073,1.39943612254001e-13,-71.57359454333451
0.03741911686792994,44.76683488524435,1.109751179839691e-11,-87.29158379077708
0.07486375506856745,38.95985696383943,2.163051959769291e-10,-100.6547231580819
5.840566125974614e-16,53.3448697798211,1.39943612254001e-13,-89.99473849740822
0.03742038470783903,44.76509880024017,1.110733727216484e-11,-119.0365805347124
0.07912362275664636,36.29645686095046,8.473584056645223e-10,-69.28458453120453
9.555848176237971e-17,50.43995531796638,6.143419106763304e-13,-37.79833625370478
0.03740363675071619,44.78821605579429,1.097699708907385e-11,-144.409063404983
4.730343101349462e-16,53.34486979978556,1.39943612254001e-13,-110.8099753235505
9.555848176237971e-17,50.43994270270841,6.143419106763304e-13,-31.50807406739978
0.1123329121594248,34.20382807174695,2.481561345302197e-09,-81.00113928175691
0.2865910140982264,22.24644544485523,1.199011495423008e-06,-164.5471857210761
9.555848176237971e-17,50.4396694213838,6.143974218275616e-13,-37.33651143466696
0.07914776296731908,36.28182882914439,8.537424101007218e-10,-74.52487710639056
9.682324783204268e-17,50.43929881622154,6.145639552812554e-13,-70.87884865647243
0.07485782272158432,38.9637664195576,2.158724865530814e-10,-143.9587360617568
0.2202176846307383,24.25197875323033,4.226010349439591e-07,-129.5967375889977
0.03957355839459553,41.96056748087867,4.65663618776091e-11,-75.59769928435217
0.3813625048640834,15.7465291802543,3.621034427270242e-05,-157.2636038666192
4.004733053112191e-17,50.44143665354909,6.138978214664803e-13,-57.56517979249494
0.1123608728322297,34.19203897480554,2.496640394422656e-09,-115.8890097153013
0.1902366565831773,31.08319072122168,1.236014451899692e-08,-115.9050982488915
0.2534439619049658,25.0947500188318,2.729062808515259e-07,-151.7799013889923
0.2219219951661081,27.93092142535309,6.286224024654175e-08,-113.0509615028048
0.2387292108543454,21.00504465905286,2.290378252223224e-06,-93.63959879455135
0.07486521259704394,38.95889444715576,2.164118884095956e-10,-108.9660974619622
0.2572944124463463,21.33280899636875,1.930336111788389e-06,-117.0840398298275
0.2937065888722876,18.80658248776578,7.233348730539824e-06,-93.93306775843816
0.07494966684499184,38.90328556913221,2.226652195957968e-10,-135.4178552863377
0.3676844487201573,14.33048468241901,7.668059056537002e-05,-137.1075015558185
0.476347312029141,10.69501217216515,0.0005371238333690131,-171.7879251296798
0.4196426968253347,12.30871253171489,0.0002254244240210146,-157.1059799586427
0.2208939550177791,28.16163489176051,5.579740014471923e-08,-112.3524832917362
1.419397121485315,3.045525313994972,0.04047995959906747,-299.6954954448709
0.2254127597260871,23.28739084396591,6.975581482993043e-07,-136.5539358390008
0.2813913392226175,17.93449386814365,1.143197586961353e-05,-107.3299575602073
0.1873391245295548,26.5537005934425,1.28156637690946e-07,-154.7470818718313
0.4065605587279018,17.82941266617405,1.208096409399673e-05,-167.6913573765106
0.03955742740254224,41.97822108248403,4.614786330847664e-11,-79.02650010694938
0.2628211194548653,20.49545701134934,2.988647632318209e-06,-169.4856195699933
0.1981133732823637,24.20519165831891,4.329926359680769e-07,-100.2271664472555
0.1584484919358798,27.65804946805156,7.238419602595414e-08,-134.7367024593313
0.2385440487975016,21.03223905861407,2.25809919679465e-06,-118.5835239992312
0.2625063407861418,20.5423732279408,2.916285551157749e-06,-129.5896628772483
0.576009253507764,6.627869227961185,0.005019764453941922,-172.0433393602576
1.110715969049168,0.360670590090308,0.2740670213371929,-347.5940134737161
0.7968873701619353,1.498320466943028,0.1104649832582408,-256.7971716191691
0.2623951632685818,20.55915131150721,2.890836679259046e-06,-166.5347756283643
0.7635592994991817,1.748102066933996,0.09305775352593099,-241.5496723704388
1.180721835085237,1.119281951559628,0.1450365604678875,-363.9110806087136
0.1187887987363018,31.62689397103306,9.341213746960619e-09,-58.60559451390726
0.4505286230435357,10.9429718570014,0.000469796699239633,-155.3302525797594
0.6620951067260513,3.710242554987985,0.02703976585169615,-197.3483677700768
0.5430150428228002,8.290326038325588,0.001992841602625417,-190.4569981125115
0.03955702621800605,41.97979220779892,4.611078185945416e-11,-51.65440669356129
0.4138194707720814,11.71116605119164,0.0003106308888961573,-187.5685276828576
0.7106290517354273,3.13781974265703,0.03824800059590922,-247.8005129251241
0.624475621072366,4.679721428265339,0.01526034869179949,-200.2854285728997
0.2999127009436884,18.02229311348714,1.091665711916434e-05,-189.4607536860039
0.4861938301855243,9.365688534820151,0.00110542467017094,-161.686509628545
1.169582814536761,0.8346863752520903,0.1804604529033776,-298.3621356572443
0.7304089437847131,2.298624247191185,0.064744322894419,-223.2486462399629
0.3173405071249748,15.994623607873,3.176131086962686e-05,-161.0725161135434
0.2263290039982825,31.12997826041976,1.206577981971435e-08,-148.4548327742554
0.2773988746011649,18.44892588459587,8.7259585064281e-06,-107.7239599427494
1.4371001047044,3.718783045841747,0.02690178578653774,-301.244221755788
0.7591504133683445,1.828156473775664,0.08817272447332081,-191.3638242900456
0.6001414946818604,4.651212263524997,0.01551581257914064,-178.0985942740641
0.5393078453966307,8.022306427041713,0.002310234568708214,-178.650071370942
0.6770919572703756,3.465147129345951,0.03133746578640861,-218.0111649323146
0.4781977556610864,9.152898060891573,0.001241622305627521,-163.6208167008898
0.2375035363991123,21.19888041507565,2.070031421830265e-06,-121.3627058386818
0.3173559822208765,15.99322199780335,3.178483391697018e-05,-111.7845232617722
0.7953274646734799,1.411756800199612,0.1173824866526335,-233.2695101722365
1.52748115008753,3.89341329711749,0.02423790453314312,-353.6468923940645
0.7002858309491142,2.71341761986173,0.04975380120666539,-180.8022487717019
2.436093181928479,45.73897255788393,6.75537403793669e-12,-522.013412662545
2.133906302602471,21.59630033235692,1.682501484356891e-06,-365.755447062655
0.663182798390654,3.48273115926429,0.03100615648223815,-191.4954634854633
0.1097955193040989,35.28836986665632,1.421624373776353e-09,-63.8664255222363
0.3563153574822606,13.89001506669703,9.691272629147596e-05,-104.3547433215013
1.42828538952338,3.601147519262327,0.02886985132547426,-305.4049235942935
0.7905700403909968,1.42898441850582,0.1159651267465356,-272.5173440012663
0.9472425563735832,0.05662325506534671,0.4059574498490866,-142.2153428651717
1.235530414935557,1.412294393585171,0.1173379420340566,-306.7309574703349
0.5121444045950954,7.338318809218549,0.003374996940416819,-144.6192172239917
1.864397788021637,13.60961840636674,0.0001125148123933828,-359.2526084899702
0.7482872647385964,1.849065365607089,0.0869460685385155,-207.9001681146208
1.017300667639613,0.007864009962304408,0.4646684105272588,-283.4480259152414
0.8591251821030244,0.6525621760846434,0.2095990608074993,-258.8579651857573
1.590827274721442,8.489157388005879,0.00178634616748341,-387.2165219223447
0.9917664129315036,0.002116047869321847,0.4816549176005372,-269.1612314295818
0.7516614054892394,2.41763709247391,0.05998788960725621,-236.7994826812387
0.9245118903353806,0.1574099650715652,0.3457761901882451,-245.5925933927351
1.101608891463691,0.2263699321316608,0.3171143155684711,-293.1942844861994
0.7087082587504194,2.390915456089999,0.06102107098356457,-179.1124317374062
0.7147886814318585,2.393679106540674,0.06091330667759243,-247.1556366627082
0.9479401513331449,0.09858873410712476,0.3767649131731695,-297.3333160245243
0.597947270306551,3.782805748313052,0.02589088118568594,-94.42674493232501
0.7641070141666622,1.896932228689707,0.08421105131634332,-216.33396423413