dN/dS,LRT,p-value,Log(L)
0.06687536932919036,67.15163307788521,1.110223024625157e-16,-313.1969977669123
0.02226946587997722,79.82065099684931,0,-112.0678235380318
0.06685274573224688,67.17986499709963,1.110223024625157e-16,-178.7429869431156
0.0442790175579842,73.50573766419541,0,-91.30541993404327
0.02224110271461372,79.93232160738782,0,-117.6210065295083
0.02226932096707,79.82108667451917,0,-276.2175117850836
9.555848176237971e-17,91.02440509004018,0,-98.21714624868027
0.0222720800487814,79.81033107703652,0,-71.8509989807177
0.02187814150747177,81.36006014665369,0,-98.66761286947384
0.04456108645008542,72.96614734576633,0,-283.2954695717037
0.04379810954027274,74.42779307824441,0,-64.02450653825933
0.2431496784381607,43.94467773982808,1.688948980671512e-11,-204.4742916571549
0.2825871877356957,38.04052831834235,3.46451312083218e-10,-207.1355354008153
0.02226660981539169,79.83194683016399,0,-120.585459879195
0.04370315250851139,74.61223198050067,0,-114.7215959590125
9.555848176237971e-17,91.02560884107444,0,-101.5335429026007
0.02227189404907724,79.81146902861343,0,-79.43206248608426
0.04455680892478678,72.97357718546215,0,-174.9633255679494
0.1312784790273652,54.71681891267809,6.961098364399732e-14,-153.5668765020004
0.1325397734008454,53.96900482304358,1.018629625093581e-13,-120.0076775607013
0.6341944571239169,10.12224435679695,0.0007324525482023669,-303.0272481658673
0.2232192906389252,39.36564838157619,1.757126111279206e-10,-383.5937747315537
0.1535719124605681,50.61359155874004,5.623279619726418e-13,-232.7421847428267
0.1309199367577097,54.92690341038218,6.256106743762757e-14,-204.3991016012607
2.974838684721946,105.0308695670492,0,-741.4080985330509
0.04377025210602515,74.48482690327396,0,-71.52516969402309
0.06683112399398404,67.20739954571189,1.110223024625157e-16,-209.5097530191657
0.7544409599225876,3.386604336416781,0.03286409116680905,-302.9367459210097
0.6642551892588333,6.880618982272608,0.00435676908923005,-445.4352613880246
0.04454948966156276,72.98080622468359,0,-97.59719305231911
0.1756248646062225,52.85594494275915,1.794675519306566e-13,-130.6770431430939
0.2009462095667471,42.4399363098712,3.644323731677446e-11,-295.1950152940951
0.02226600827289135,79.83443451969498,0,-81.55521783647231
0.4035708809517326,23.82360431606412,5.278988585710742e-07,-252.6858912944437
0.3253291135252027,28.34599742029172,5.072817993445611e-08,-181.4782674470936
0.04456201723117321,72.96459477534552,0,-105.8805006159624
0.2739361661449765,37.69987356458574,4.125495500773013e-10,-183.3405362884114
0.2238262073906611,39.17800454340238,1.93437044160305e-10,-276.5761366156489
0.06569630197501936,68.6357324013465,5.551115123125783e-17,-79.13807596227358
0.5864385931870567,9.883826849548996,0.0008336890103961547,-315.8431406645547
0.2461258587527421,36.31656151224354,8.386622507572383e-10,-281.7958337966929
0.201197118776225,42.35001408679943,3.815786575600555e-11,-124.3421496325725
0.04455881824311309,72.97033430425756,0,-118.9182687788455
0.3528867610458872,28.31381548914516,5.157856108883863e-08,-221.0583343161599
0.7732100004609879,2.436881239574291,0.05925582073466706,-300.9037595989424
0.5151887208082362,12.68494750961531,0.0001843054693689838,-363.9502044720538
0.2680569523830492,33.72269406127509,3.177745400151366e-09,-268.9476514372582
0.8396622523513606,1.477652744974534,0.1120710668003657,-465.2038007316282
0.6012561300208277,9.204415982628689,0.001207160039103039,-331.9980428785266
0.4188853699246116,21.55165802327394,1.722123945446796e-06,-312.0447158811845
0.1113788255501398,57.52553973704102,1.665334536937735e-14,-104.0054715747838
2.021145936765425,32.13771455950064,7.181100714070965e-09,-558.6246197231119
1.473996576342385,10.26336032358211,0.0006784914376025686,-467.4099178228409
0.5983879591205464,8.134476477143949,0.002171569283643204,-317.1393396197923
0.4010312011530243,20.73245360040141,2.640664263642289e-06,-342.8537384807799
0.2408307720165486,37.78326009974859,3.952863036893461e-10,-194.2832125216596
0.1758968483439841,46.8710076998517,3.790801006431366e-12,-111.3324063909535
1.004133055397087,0.000634446283811485,0.4899524176599854,-321.8398221750549
0.2232396527513851,39.36071897923102,1.761567558489219e-10,-204.039517976979
0.153312086886248,50.76286742399986,5.211386877590485e-13,-128.849261776431
0.7424315626115545,2.726342520955427,0.04935254701152558,-279.1794578502885
0.5520230050735289,11.65987191528006,0.0003193136885601411,-345.1659652740848
0.3013017020592612,40.09587715091095,1.208994016010934e-10,-205.6510342273147
0.3349293527585948,30.11177422991682,2.039237345652367e-08,-193.4345641398928
0.2632613560034917,34.90111190564647,1.734413557219483e-09,-180.6021842332808
0.6649788276108473,8.249652138949614,0.002037990559505432,-314.2157462369109
0.5770501814793737,11.27056153610499,0.0003937295252621764,-286.3234832405325
0.8820081736848099,0.6890504422751746,0.2032437742136655,-421.3049454132235
0.6078911984681579,10.25249587308406,0.0006824989777258206,-307.6658769863319
1.109895462782825,0.6150010046684429,0.2164555165469511,-449.5318851806696
1.01463809402639,0.00939508173246395,0.4613916951104985,-440.387619297501
0.2853817439821248,32.28452583437456,6.658482543109301e-09,-195.2438666423853
0.7640434131732081,2.836895968518093,0.0460610075719326,-334.0601236158613
0.4241927289193872,18.8613452297198,7.028625925720178e-06,-210.6778548838143
1.119614242316318,0.695417540097651,0.2021638822924982,-557.7122780593909
0.5778265243596464,13.80513990828331,0.0001013903575531883,-261.567765591265
0.177588795916786,46.17873412678597,5.397127189610273e-12,-141.5750741327367
0.6756504465551975,7.89015240638696,0.002485233801903353,-322.9755342117608
0.291386224714011,30.96976015877857,1.310400676857171e-08,-182.0358935999384
0.3332953106313166,30.44247409082834,1.71957483252605e-08,-185.2198034218843
1.023663202463154,0.02849953329007349,0.4329698809663699,-443.6021858576822
1.603556347934242,15.75727722020997,3.600519919499945e-05,-576.0956603129134
0.6579991737913474,7.84447381692587,0.002548814676502698,-355.1482534379423
0.8607249433331251,1.104784615715516,0.1466092369234778,-417.2548089142414
0.9871238833943433,0.008078200974523497,0.4641917590049377,-416.7578783939016
0.7883881263699021,2.187446741327449,0.06956989806688413,-316.588612060973
1.5274321348962,11.46259817803775,0.0003550547445905772,-578.899630654771
0.222319270780209,47.61740634086345,2.590316849904184e-12,-155.1582799153806
1.980316974449457,35.38866406205943,1.350270339983695e-09,-660.1121751829456
0.9687836709663323,0.05650659059608643,0.4060525677424969,-494.5685601862698
1.728887731871486,21.61678958382595,1.664623688946154e-06,-601.181105917181
0.5366283586787042,16.96238558119052,1.906388059752517e-05,-253.6123553145062
1.073398248707569,0.2577359382024724,0.3058399397821083,-462.8391013748204
0.9476939696196316,0.1288725420198489,0.3598019509495787,-457.1766159966667
0.6209530259244032,7.438602258061451,0.003191972603123816,-267.5456689557861
0.8796778137543713,0.9040920840061517,0.1708434188213345,-433.3971482404394
1.047905962362022,0.09826540703761566,0.3769606136329756,-537.2650515086478
1.088194196967956,0.3927216649337879,0.2654361187296176,-443.7010985089489
0.4262774328988121,18.6129457880096,8.00647266602228e-06,-211.3901021459956
1.139851876809055,0.9254980521509424,0.1680177461639885,-425.7667363697078