dN/dS,LRT,p-value,Log(L)
0.02844814580129397,182.6196716831085,0,-340.7906253050553
0.02844482402505805,182.6736186293489,0,-279.5234427009901
0.01084035258289023,172.6646504900309,0,-217.8597380144062
0.06499242270779276,139.0723093457436,0,-477.823028264586
0.3872498483539317,56.62079274099369,2.642330798607873e-14,-685.9126325287822
0.08667101242881518,128.7468934880042,0,-519.5047378271597
0.2682949453439689,89.77509024615279,0,-542.3740643979907
0.6510949279668625,15.04226401433311,5.256513776513705e-05,-658.096588534627
9.682324783204268e-17,183.7450667069313,0,-174.7871172185445
3.17603086687411e-16,183.7450671421619,0,-149.4897334629455
0.02167632708418134,164.3721170225728,0,-200.8922464655476
0.01084089221656975,172.655616751051,0,-130.0074553892838
0.0758106452951792,133.8107401466261,0,-381.5692505700055
0.1615753082607083,100.3937536205954,0,-505.6091469089431
0.06480647129993332,139.5637694711444,0,-281.5573611213144
0.2600476633414209,92.54700951008203,0,-408.375260215462
0.04743239066338418,169.4889016986804,0,-220.1395397799791
0.1737033748047006,95.61015603715578,0,-549.1025065731412
0.4075980556394312,49.68688613447671,9.017231406005521e-13,-533.199200932359
0.05683449263259416,163.870104975494,0,-308.2619204541676
0.3512343275201802,66.82750201047406,1.665334536937735e-16,-580.8377010928111
0.2416083413234396,99.08939263143361,0,-389.1538548044271
0.03793887058644995,175.8182398884594,0,-209.7390907705118
0.2388936207930288,76.68010854728527,0,-487.0575048094904
0.05695132912173412,163.4879684720498,0,-203.6704683303697
0.05691347828182092,163.6200520012021,0,-206.3177681677077
0.2158382111403616,108.5747799576362,0,-355.8989135653301
0.1822280352108037,94.10782384241861,0,-571.5458812486133
0.4444629198997032,56.68266325455352,2.559064071760986e-14,-517.9149235842228
0.05422526877317805,144.4854319900431,0,-206.2737858075054
0.232982289905618,102.1961531012286,0,-346.3872245919094
0.04737998291367112,169.7151684710072,0,-185.0037032437112
0.3687480752794292,62.43685364236035,1.387778780781446e-15,-539.2937087871953
0.417310586758433,51.86872567255136,2.967071033310731e-13,-593.2447818365209
0.5100430013703482,36.56284437898398,7.391134926315601e-10,-560.9308316192499
0.4889552998941968,37.97188611597221,3.588571106938332e-10,-610.9705944796099
0.4700383054064042,41.43140710833995,6.104006189389111e-11,-657.1639320855883
0.9281305475535917,0.45715720824046,0.2494777805865608,-717.3792521486401
0.5844480726005081,23.82533252067969,5.274251120290785e-07,-697.3307375128265
0.6437586960603375,15.6891032830174,3.732650908144786e-05,-641.4001567458383
0.379985263097244,48.79542493404779,1.420530360007888e-12,-718.5549490584651
0.3637675525678849,63.07563211440447,9.992007221626409e-16,-446.6259507815562
0.4957408074812338,45.83042461805599,6.447287148603209e-12,-521.5246068195622
0.3296545738240892,71.62458984947148,0,-488.6549132350929
1.520218484050316,19.836894320591,4.216949224755684e-06,-1215.870471143983
1.125213450736751,1.297576320655935,0.1273282057932452,-935.9590620629049
0.08676745008453995,128.557370658182,0,-242.3604229115907
0.3231499799966378,72.90111902720196,0,-489.8107340496161
0.1085330409041677,119.1674197470691,0,-311.529402907059
0.5781056263495012,24.59955986149475,3.528392505947053e-07,-736.577327379671
0.4202514765201689,49.93131256046229,7.961409309586998e-13,-472.4485779090625
0.2487142914265606,84.17732040658564,0,-450.023434368556
0.5095017792487579,34.93292112410518,1.706308427884551e-09,-666.5804636573416
0.3704111033945795,47.69638125955157,2.488065309336207e-12,-557.1685392751269
0.7917580887880511,4.509055036922518,0.01685793139640385,-711.4028785542646
0.1326746411950655,125.7791645720373,0,-263.3264412020427
0.1618975757407252,113.4520198950066,0,-311.7492991596834
0.6568186459938733,15.60956460107013,3.892987803710835e-05,-729.359148392267
0.3362319950450278,87.86642366423735,0,-398.7710512661046
0.1514277763768007,103.4284838564183,0,-287.0146911828837
0.5888840803920693,21.416703772755,1.847688547773618e-06,-604.7509088274957
0.2471723429736964,75.31403863627384,0,-375.8480240813457
0.1618444574313758,113.5038595869281,0,-328.0977417494582
0.3517699567414724,66.62365230807347,1.665334536937735e-16,-422.5446420331384
0.6786826917593648,13.97359875601046,9.269788640597909e-05,-751.867090886968
0.6492696209483252,17.20269487064047,1.679797189224619e-05,-707.0330051322136
0.6378125410754097,17.12153259093202,1.753126372860958e-05,-738.6416744354646
0.8665826535183756,1.597499858505216,0.1031289387203925,-690.7458897996228
0.2832207157328587,65.55570766605842,2.775557561562891e-16,-358.5252334308097
0.5534453910781725,29.51196491979749,2.778628616084688e-08,-689.105395899093
0.8717932559967163,1.856941328962193,0.08648911513190555,-791.9117918201007
0.3514406180430793,84.22313621915725,0,-405.4904341258199
0.9409602081306239,0.3443082224416685,0.2786764639678576,-917.2518898663398
0.2771002445440534,76.37265745257491,0,-477.1020248802326
0.1412406121292923,106.5492789087247,0,-222.7118818300077
0.5476537686316165,28.45302521560438,4.799982195047292e-08,-613.4910049236893
0.2611797179086791,91.6383363740714,0,-394.9423766841547
0.6117244984998295,25.3104394527013,2.440300480577307e-07,-615.1095052303401
0.8764513460378804,1.71465183294481,0.09519146484923879,-871.6147534059222
0.4157330784344601,54.5564540063101,7.549516567451064e-14,-522.2787009993584
1.181771132589143,2.952469359685665,0.04287322341534722,-756.3842866823583
0.6197178432682905,19.58496048540178,4.811183883346448e-06,-694.4878231403007
0.7800391476757842,6.062907433550208,0.006902511254905042,-776.1190526242992
0.5537246370789163,28.57849887325415,4.498787331552734e-08,-678.7051796391411
0.7103273190279767,12.28101184299953,0.0002287951038920655,-799.6994311327968
0.3250358302217262,64.3561675636995,4.996003610813204e-16,-434.0426744907191
1.197028879319224,3.318466614100998,0.03425284829750391,-1070.465684951887
0.3045664715890263,45.73371227995051,6.773581695540543e-12,-312.974264773315
0.6062904400987345,16.54876412651697,2.370743876506376e-05,-528.8064049726142
0.6436487744534222,15.0283484523884,5.295413849726316e-05,-595.7130796316859
1.734212869078134,42.73808084564462,3.129102532639649e-11,-1174.097703747424
0.3870151363011249,58.02738711287543,1.293409823688307e-14,-493.7616317999169
2.105396560468654,59.77740931777726,5.329070518200751e-15,-1184.850908749136
1.175606367874164,2.519144910146224,0.05623577904844479,-939.6851519403153
1.495372362295734,16.28963005247306,2.718031576826041e-05,-1189.222869203182
1.463538158814092,14.13449506787128,8.509701301107064e-05,-1274.326099893772
0.9119314454948987,0.7295493588828776,0.1965146489331042,-889.2161199592364
0.6936000662679277,14.16305983708571,8.381471900087423e-05,-689.770455620751
1.838423665172081,44.39506525557772,1.341815547561964e-11,-1295.665549728028
0.93096326208868,0.5673397685045529,0.2256589810951151,-998.8293676146213