dN/dS,LRT,p-value,Log(L)
9.555848176237971e-17,29.57341748797512,2.691912565078169e-08,-23.68974507336777
0.06738285661307881,22.15135445865144,1.259890656357676e-06,-70.22249170961531
0.1133750961319068,22.40998986686299,1.101127772962229e-06,-65.13904871744496
2.731941657024047e-16,29.57341710443467,2.691913097985221e-08,-35.32956067243624
0.06741567804568012,22.13842095552087,1.268407115395664e-06,-72.90372144280167
5.840566125974614e-16,29.65726762881121,2.57794805502698e-08,-47.51810482130126
0.1246108043219881,19.62077901522693,4.721827545850488e-06,-40.6181582559308
0.06735577669018318,22.16261856224516,1.252520214878317e-06,-62.24709680779632
9.555848176237971e-17,29.5734074991195,2.691926437314862e-08,-45.80000799449942
9.555848176237971e-17,29.57339777603374,2.691939937626842e-08,-51.85537874552215
0.2203957497313603,16.09426171719198,3.013318563910294e-05,-64.39911613793065
0.2702086337128053,11.05340125583635,0.0004426232394902918,-91.10732416560316
3.17603086687411e-16,29.57341645986111,2.691913991714756e-08,-40.17941155690145
4.004733053112191e-17,29.6628453526044,2.570540891255746e-08,-11.86806517294168
0.1347163629929069,17.55544349549696,1.395253910213556e-05,-62.37514815512426
5.840566125974614e-16,29.65907496580748,2.575545587912842e-08,-51.29490747806697
0.1968704494146805,14.63016704102093,6.540193340504041e-05,-61.39912660307835
0.2697322813277436,11.0888716847688,0.0004342365506780355,-82.6275222206873
0.06721901612789594,22.20788375724945,1.223335438282902e-06,-47.36404890797884
0.1343327831732259,17.62052346072531,1.348312212046121e-05,-59.14700479215318
0.4987024433354559,4.900993597750954,0.01342062377049685,-96.15826467600671
0.2270713691077876,15.25199099872063,4.703876552897279e-05,-54.34319991666462
0.3122163721679875,10.29360812241291,0.0006674590406131053,-77.50043542825985
0.7172026753376141,1.47015259369465,0.112660809731358,-91.2324611674257
0.4911850747209147,6.424925527306982,0.005626481543057227,-87.11129203478916
9.555848176237971e-17,29.57341748574356,2.691912565078169e-08,-44.47448989196649
0.06711644881588082,22.2596779141261,1.19077701882242e-06,-46.27194162382234
0.5523515347208822,3.86342094931976,0.02467480517016268,-98.55268538354112
3.17603086687411e-16,29.57339625146157,2.691942058152819e-08,-46.88000789700968
0.1861310088664226,16.01820383753942,3.13681816144773e-05,-49.17412214433273
0.06738774673355416,22.1496435282918,1.261013969688918e-06,-55.38941237223222
0.9495692146439727,0.04037471723421504,0.4203748526181953,-120.303942918741
0.06743414645873712,22.13095801335584,1.273347570496242e-06,-52.88091293213688
0.3807330590801815,7.8660432258296,0.002518587811905726,-72.17272501882688
0.2020618601595824,13.9935469399565,9.171956358905442e-05,-43.70855310606104
0.2026453413209394,13.9298243998518,9.488172462207567e-05,-58.88521411456271
2.731941657024047e-16,29.66050811189413,2.573642127190467e-08,-41.33944760177431
0.06716851955899948,22.23133591111581,1.208483937364946e-06,-30.80966966144
0.3425324667995854,10.08806543389127,0.0007461634789185378,-69.45081562476038
0.5856596750756079,3.414963140356008,0.03230392820681932,-101.5074582711966
0.4008608194364347,8.056592405566505,0.002266918793259021,-64.7935263320072
0.284777190828799,12.45126305721267,0.0002088546278475323,-59.77456212147924
0.44054082777036,6.240877229917004,0.006241731421385233,-85.25750073687452
0.2679755814903058,11.22873677542235,0.00040270222795874,-44.0696125260406
0.2687181812471566,11.17010429531587,0.0004156297709421719,-82.96891147860737
0.16490105720871,19.4492787104528,5.165342263080408e-06,-54.38600821058694
0.8310569776621384,0.468330737218821,0.2468780557291036,-119.6062291679019
0.2837797937546926,12.5392509904717,0.0001992460015313724,-59.28561559822065
0.0630822210352187,23.98409652555394,4.856736496305913e-07,-44.18683392546331
0.06714182961391865,22.24241673224353,1.201529861993844e-06,-36.52328523618841
0.3412053136191466,10.17821699867019,0.0007105476766213759,-83.09524095028895
0.3413987410049703,10.16597027491198,0.0007152830429416612,-69.5422295274543
1.385309115058987,2.070591529125522,0.07508163465913098,-171.5000327487505
0.1349968615487774,17.50147520237887,1.435424212725689e-05,-40.46098431309333
0.2279762242995218,15.14997946592653,4.964969627851978e-05,-56.70536213694962
0.2713003016992269,10.96758383813679,0.000463597866815546,-109.2140691869956
0.4051403775663767,6.719647086490482,0.004767824713204638,-84.13425737929902
1.424452647030806,2.645870435612835,0.05190963924824277,-181.3526259240052
0.4092421654018326,6.546022928708339,0.005255943572308408,-93.38746511458247
0.270093479356654,11.05781176602878,0.0004415715603283132,-50.97655269381863
0.3398073100902635,8.566447877726745,0.001712072781462015,-73.45975548399257
0.4728614441400006,5.090813305685941,0.01202645439224115,-77.69581429631998
1.538890583344575,3.341186938841645,0.03378292664505295,-184.7738621701714
0.6593789653043118,2.179002055881142,0.06995257653431514,-109.3276812846062
0.4418024622426473,6.193208043843498,0.006412075331964473,-61.42006363810134
0.2509395809020699,12.69739287375467,0.0001830828674396212,-75.17038748090097
0.6829212225730952,1.642654392797851,0.09998083183101025,-106.2453752179806
0.2268396351509813,15.28011144035527,4.634364191991036e-05,-62.93963489643968
0.5031666291929616,4.760347993915559,0.01456132974198093,-80.50119998899176
0.549858188587012,3.496101422803633,0.03075673836477127,-76.2052642336931
0.4079196948884432,6.593680059350874,0.005117070138024427,-71.03767305869034
0.970471660687783,0.01256119944613943,0.4553812732891699,-117.2868692813941
0.06716135530465353,22.23077629950971,1.208836206190167e-06,-47.83668658550786
0.6933476105135573,1.80616178896247,0.08948467309141112,-97.59096524179303
0.9939467020972874,0.0005141444738114842,0.4909548569814516,-134.2206169370198
0.8421465027855508,0.4329956767301724,0.2552613322732984,-114.6614207421812
0.1707324045351654,18.39503445967539,8.976260377158152e-06,-57.26162949820139
0.5185957156665211,4.845631381271971,0.01385812205581793,-73.07721358289638
0.775058103876525,0.8401513085387933,0.1796767500727535,-104.6562956934814
0.5296873257216965,4.006529998780849,0.02266217130715675,-77.87142183667078
0.52982741156974,4.002423070665202,0.02271745071632986,-93.66900709643186
0.473170658995239,7.231044223125195,0.003582675869400254,-71.17810949148637
1.021532889036526,0.007147496182142277,0.4663124113612034,-142.2125400902703
1.088276410113433,0.1039498058665345,0.3735701162940557,-140.1897291245166
0.7269605926966386,1.235898955198365,0.1331314457721252,-109.8793301129023
0.2701164939521809,11.05444930755118,0.0004423731040953949,-65.62131592132768
0.5448702984148439,2.718355127985689,0.04960009723178538,-50.50719263326329
0.7221574288346541,1.406338278395253,0.1178326061332227,-101.0921818369036
0.4633591228045438,5.403008209321683,0.01005103737049662,-65.44063253030589
1.142555004866799,0.2691791688622516,0.301941462456049,-135.1706183356679
1.105520185147865,0.1541250873226545,0.3473120198218254,-100.6305414310362
0.4774359416567467,5.629062843915477,0.00883253656382732,-76.58447447560118
0.8389462008679128,0.4860323551357908,0.2428512693162299,-99.34981907051343
0.6085866483430029,3.475677248667608,0.03113861225114944,-93.76865039654999
1.83443334330958,7.783223536174432,0.002636680933013058,-168.0579627531682
0.8887813397581255,0.21449889122988,0.3216319204517596,-128.2851067674343
1.05132550166339,0.03903909958953022,0.4216856111917726,-111.8776163610478
0.1971718400777335,14.59400490288232,6.666903289748172e-05,-52.244586009035
1.538186667785703,2.394404205170929,0.06088506751793732,-139.3360151233996
0.5881280271489211,3.357460870706717,0.03345057351141806,-99.36829693411021