dN/dS,LRT,p-value,Log(L)
0.1873498833424765,97.68208601623934,0,-197.3461513053768
0.1320300823653526,110.4154410249354,0,-211.0932965507598
9.555848176237971e-17,184.5673365067444,0,-74.74381432998106
0.09048216826792745,129.0871956187555,0,-185.4389206246331
1.843763237323921e-16,184.5316985326807,0,-80.03164018276661
0.04959196831064338,152.3045657507846,0,-161.178720055515
0.01025178735386973,172.9820430814763,0,-84.33532985529459
0.06061845020902338,143.7986151905557,0,-171.2368084102113
0.08932596399366623,131.1620292213614,0,-181.7804497859735
0.03987127584547757,157.6807219363765,0,-181.7211800405413
0.03004601957146122,163.4925134687053,0,-147.6576651653534
0.0205481065602939,164.3600673219551,0,-96.18768844157054
0.2104178263309698,84.39090580377933,0,-191.8133870440197
0.1830049178888719,89.41373890802032,0,-221.827346505724
0.1857174441951611,90.24924973886192,0,-214.2425200020706
0.05171926460550026,143.4309850386359,0,-110.5334551300298
0.1372986865051885,102.7651757318397,0,-150.7001927480702
0.1685547092817444,92.66737709770973,0,-171.7636187943568
0.1917635408205357,89.88817279475825,0,-209.3268080283965
0.331484544744984,55.26656227084379,5.262457136723242e-14,-251.7492664694711
0.1646834226278871,97.37873072386037,0,-215.609136933379
0.1697425148872921,98.00832543321445,0,-226.7684534475555
0.1902955667331554,85.29636988973436,0,-169.6031596971988
0.1849891772731903,84.28409831197143,0,-177.1273296803884
0.1812971498999728,87.25207067841006,0,-172.2705803846528
0.3989567613186682,40.94821157984802,7.815847968828393e-11,-264.902355765968
0.06235745301521575,137.0214783618034,0,-130.350195211984
0.3230597454563764,50.40695389874958,6.247780071078068e-13,-216.8539183298698
0.3872235698309278,43.20982170537872,2.45866105252901e-11,-252.0398761097873
0.2541808902252674,77.60154010383968,0,-215.9695723478359
0.1375538646092503,102.5569506058558,0,-144.1051337431025
0.388106501237602,44.62520098180323,1.193001253341208e-11,-262.1124463747637
0.1538419735991008,101.18346152878,0,-215.9213979395669
0.5328388323902712,21.42302632751853,1.841605798580392e-06,-305.2952815376916
0.1347555459921652,105.9763446575965,0,-154.7748124259544
0.3388171318503094,51.99250960256035,2.785549568784518e-13,-253.3205438777874
0.1699522710704114,91.14175103852017,0,-167.4706056420493
0.2100125339242015,80.36658227775814,0,-181.2041207364688
0.2281668506257691,77.3962712674122,0,-241.5415870078594
0.3565330455209771,50.08417906333568,7.364664433850976e-13,-259.0433885557337
0.3174133294972977,58.15828193990956,1.210143096841421e-14,-257.8661478885839
0.5175299546527462,22.52503856635349,1.037111393042967e-06,-302.385575047667
0.3910332084372105,40.49216292067206,9.870315675897245e-11,-275.749324279977
0.1607264618532547,94.19819232691071,0,-156.0873851391016
0.7144376137696601,6.971800464387684,0.004140207020804254,-327.7143604242693
0.6100477970944979,13.81374503989878,0.0001009270519301553,-296.9535674308252
0.2429909002651968,71.80398594819792,0,-241.4654017132885
0.748257227449473,4.656728183119185,0.01546604006035485,-343.357602206873
0.498349593873615,24.61404504056895,3.501969749741818e-07,-284.4816083404905
0.6166087953047135,13.47982145603385,0.0001205713732791991,-310.7879120053568
0.3700514478098432,43.85651257041661,1.766764512467489e-11,-297.7866168150125
0.6648383775092203,9.758669037397453,0.0008923953899461212,-306.5663259160902
0.3348565236428307,48.09406179680553,2.031264045854186e-12,-213.5627986662035
0.5144285063674724,23.6635992554227,5.73661286196181e-07,-282.1744373866814
0.5647383056306658,18.47062786741276,8.627153483153904e-06,-289.1542949314934
0.3999128070457978,38.43596745509728,2.828997591741711e-10,-263.4023347944095
0.633266492371611,12.06770331370558,0.0002565143173560713,-321.9026611696712
0.5521239219523125,19.97370692968286,3.925720280462119e-06,-297.2191826291776
0.8105784965922516,2.836138694305987,0.04608272451086581,-349.0547130673619
0.3038306850251979,55.46067650801774,4.768407890765047e-14,-220.9013641102348
0.6875468612639875,8.284534803693987,0.001999207341617182,-350.023404294472
0.5892949014512734,15.48898514854318,4.149371980349814e-05,-335.5431552280759
0.6141628625393949,13.77903960219726,0.0001028087616376516,-315.8402970876571
0.7023961146734568,7.105325847964991,0.003842762629330254,-348.6539102398304
0.5393758493587113,20.41209598384069,3.121696131036522e-06,-337.3858501337763
0.589038621684732,16.92404927232053,1.945277080678265e-05,-326.0287442549413
0.835996432064579,1.963837989969875,0.08055172326600329,-360.2446815630877
0.6585065774794862,9.83848332875516,0.0008544917373519145,-333.5684255616213
1.027670545052555,0.04363939582765397,0.417262978476841,-371.5848494196613
0.5087839105908777,22.72659242311715,9.33826516169578e-07,-291.8735531172912
0.2149200193752292,77.28623881276485,0,-168.6867857311122
0.6208809931888742,12.22340380991886,0.0002359687604194804,-297.8924035876732
0.7224592583233838,6.394093938424248,0.005725032801126906,-323.4669651633943
0.6223697245821268,13.44780907582333,0.0001226462343775769,-315.6868098395934
0.6663804606563826,9.504687915583872,0.001024738066644659,-339.139722825558
1.239997924729589,2.770396526989316,0.04801118589826331,-392.6193912740017
0.5990175977704235,13.83995207195869,9.952914616068176e-05,-301.2252814681485
0.6564350516319643,9.751869271375426,0.0008957023190778735,-296.2162234018141
0.670945349289521,9.196861942568603,0.001212151840714104,-335.5157107287285
0.883070445148002,0.9299276110485835,0.1674408680313305,-352.1060347452355
0.7491153733088566,5.282442212110595,0.01077075599447452,-337.2657895125494
0.6399177933176625,12.35695513379494,0.0002196733235014792,-317.8094761181021
0.7097233745008913,7.252421381486329,0.003540273584949905,-328.3610763737736
0.6239449206447306,12.77628093829333,0.0001755210762703907,-320.1854981890883
0.5980684243363428,14.91914630893064,5.610914257958566e-05,-269.1621219493907
0.577886808854852,15.49915034695744,4.127117386337753e-05,-286.0688331477056
0.8134891242019243,2.413855845429339,0.06013290593954457,-320.7738386986051
0.5124127423960523,21.30341131220769,1.96016618636552e-06,-257.6380990975655
1.156030178823097,1.265960998653782,0.1302628818049819,-376.8348317950777
1.048149921005344,0.1277814413095939,0.3603717492115749,-360.5474194952756
0.83472903560826,2.079014856190497,0.07466826523902259,-356.9680828373823
0.7411398447221097,5.888822890204437,0.007618641053542208,-341.6220183693297
0.9196508800820336,0.4273677963352611,0.2566416825295426,-352.2928400619796
0.5988873488009182,12.63087350861792,0.0001897139189644959,-226.8158007837299
1.092721728890534,0.5299648163151005,0.233310825926094,-376.7268855329506
0.8844976404570282,0.9975862250581713,0.1589476382700357,-356.9971549626789
0.681773689534889,8.301895713850627,0.001980185873641682,-331.4548684325533
0.9720367351656931,0.0568564418808819,0.4057676397514793,-381.3481475524375
0.9259973376228204,0.3577285514694495,0.2748852270491531,-339.9412711321338
0.9271182611905533,0.3464539939332099,0.2780636673461772,-363.849982590642