dN/dS,LRT,p-value,Log(L)
3.17603086687411e-16,107.4310964633075,0,-82.32808575009068
9.555848176237971e-17,85.4111033425211,0,-80.36415250133128
3.17603086687411e-16,85.40931369935487,0,-78.92594221564238
0.01855678938098806,97.41700641597069,0,-67.95776754357423
0.02330518611410949,75.87786003096829,0,-59.76326793456458
0.05569129842579984,84.05017546206133,0,-117.8772788274043
3.17603086687411e-16,85.41264157761987,0,-64.23047528175007
0.199088368915245,52.70093503550834,1.941780070069399e-13,-239.3799350580122
0.01855821727661885,97.40884591202058,0,-118.9720852337967
4.004733053112191e-17,85.42363261432099,0,-60.9887924436466
0.2181109968533473,36.84549392925652,6.393564566664622e-10,-152.1563397276534
0.07434432967422462,78.47037694438632,0,-103.5992630128421
0.04663674368220377,69.09865115267513,5.551115123125783e-17,-100.5151696696303
0.0930072347538354,73.43713119799452,0,-164.9513201347352
0.1301917565937075,64.68639914259074,4.440892098500626e-16,-258.9183824793682
0.1627808781045703,59.59274720178382,5.828670879282072e-15,-145.3883300769888
0.1630405198854412,59.42972833916673,6.328271240363392e-15,-168.6892037793751
0.8216771062769758,1.841766514369738,0.08737202104990727,-393.066994277572
0.266282057412624,31.26572054434149,1.125089749143271e-08,-189.9900337131192
0.2228980385029415,47.3988599112173,2.895794715129796e-12,-247.7018812567994
0.2885994890094978,29.10993992323199,3.419261240811267e-08,-200.1371739910022
0.4368662702135496,21.96727974062389,1.386692758120756e-06,-315.6162082003046
0.1216957561040164,50.7578449239044,5.224709553885987e-13,-101.0424290801618
0.1991475862774838,52.67822807004569,1.964539642074214e-13,-140.0758299236691
0.3987003784323614,22.19927766573335,1.228831208899273e-06,-190.4964515575268
0.4592077993243012,18.24391056139507,9.717313497858981e-06,-243.4223815538933
0.05574340719381318,83.95558997839379,0,-94.60470198147735
0.3266396687910286,33.71429132207732,3.191501285471077e-09,-260.0896389434076
0.09338728648240871,58.33022846621935,1.110223024625157e-14,-94.74387420896461
0.3419911690686188,23.63873572093553,5.811212020478962e-07,-216.5588614461789
0.1192503227163102,62.76739537209789,1.165734175856414e-15,-135.2282813556471
0.02331322635675457,75.85135215319281,0,-43.78043035080451
0.09337252371571722,58.34037317756685,1.104671909502031e-14,-154.1061314262808
0.1677101106361696,56.90875380584737,2.281508315604697e-14,-205.828788064242
0.1401515482535512,49.71052720671804,8.909539772616881e-13,-167.4091996377773
0.4383391814775135,16.2927473902609,2.713563702855248e-05,-187.1843522014229
1.658946427926431,15.2916802357297,4.606067651169443e-05,-574.1663822279248
0.3296841400210873,38.91802866269848,2.209898930516374e-10,-238.0615551600692
1.255637091791338,2.568395395900325,0.05450913159340814,-505.1787736667731
0.1870971631229227,42.40448304266852,3.710987073191063e-11,-174.6220577729564
0.1167585858242321,53.82502017072636,1.09579012530503e-13,-149.2261282113081
0.3154775256626369,26.20267684525595,1.536980618888073e-07,-186.5406754592431
0.4103246941755808,22.78949271788724,9.037561498059787e-07,-219.3333061875292
0.4851306808223043,13.3978159649954,0.0001259587271890683,-267.9740067911017
0.3969110834116649,22.46403090101688,1.070578505901754e-06,-224.4463612267349
0.18630627816744,53.47870431364277,1.307287611496122e-13,-186.9476411942542
0.1168030241987339,53.79366992236186,1.113553693699032e-13,-134.386666194515
1.437043574731888,4.849322315764539,0.0138284981439265,-516.6072037022121
0.6393450573088729,8.113504184275143,0.002196835590672575,-394.5590468100826
0.8424275427025356,0.648617505709808,0.2103036957027183,-327.1762694312995
1.158893935265322,1.372135802342086,0.1207226310553157,-495.1810143215603
1.668734216435929,9.663721285856468,0.0009397126574605119,-489.1090699753149
0.5930973635703098,12.33544475832582,0.0002222191020765929,-248.1524905152994
0.6964354928946012,5.144345558755958,0.01166109981054697,-385.4527203275419
1.330383029880533,3.964378412509632,0.02323633838416123,-519.7109390552954
1.915324120084157,28.54740951946133,4.571603562375515e-08,-545.9219790409342
0.3144786924375099,26.3898985125515,1.394978786928291e-07,-192.9126149344897
0.6987282749159925,5.482555458469278,0.009603579905468951,-333.3486105875166
0.6399924469864039,7.379456021620285,0.00329865610441904,-337.8687821840726
1.12655738616407,0.7572652965131965,0.1920928492069501,-480.7934650144301
1.067568313840061,0.2490416992075097,0.3088753281055594,-439.5361065672498
0.3054922983529172,28.06186263099119,5.874932762495177e-08,-165.990853909102
0.77247387553122,3.032870147168069,0.04079678245268609,-336.5898861381389
0.4135525230251526,18.03753415709127,1.082961025522522e-05,-165.3362199888447
0.704303806616839,4.670836641217647,0.01533948940158097,-344.2043644266539
0.3522628349300682,23.6766808752588,5.697749853594836e-07,-186.674211089163
0.5889389132983432,9.352418768046164,0.00111345689224579,-262.9991682389677
0.8102347661987552,2.075823935085623,0.07482455419062611,-361.3717629081866
0.8004185022106903,2.014047530710741,0.07792452247300319,-275.5953745909902
0.5145170945533913,11.61042238547157,0.0003279162820954418,-241.4969594289282
0.436831746459955,16.44880648645801,2.499081959317362e-05,-205.3100955443004
0.2668163091980472,31.14146261918262,1.199460569756283e-08,-155.2428791714111
0.5603653286996407,9.774725918851345,0.0008846354665398848,-274.9264606485382
0.7711485741878538,3.074527949469029,0.03976383910544556,-378.2197236389792
0.6875401380388417,5.387426205727593,0.0101411828579045,-279.7532510818331
0.4706574952767466,14.71724143163527,6.244946202754731e-05,-253.4198011434686
0.7051698809403849,5.630964181940044,0.008822961475077884,-343.8233180503744
0.9968152607908495,0.0004999840265327293,0.4910802652080209,-473.7502493491747
0.6555793360360476,5.722961635780621,0.008372231586867451,-311.2831307152622
0.205381343493553,50.04376996981762,7.517875211249248e-13,-194.7089900876017
0.298678010081898,36.2715783498337,8.582445865101818e-10,-377.9742927592341
1.084197993447954,0.2538149220363266,0.307200795759225,-433.4688591964016
1.009781661121437,0.004703752908994829,0.4726604127605029,-425.1504567619938
0.7384108614036097,4.047856393656161,0.02211373593176125,-437.3156385995591
0.806308538205269,2.337204012829034,0.06315804735007119,-414.710759013891
0.5178703485580022,11.90521537819461,0.000279884979295042,-312.6311925951752
0.7361254523483344,4.240990762831188,0.01972956677020488,-372.4735069950541
0.1637696051451373,45.84999669267847,6.383171768931106e-12,-90.02297335103219
1.000443462458263,8.164847486114013e-06,0.4988600560100919,-431.7720190465881
1.082471004605263,0.3516589087760167,0.2765877805032835,-433.021920705322
1.089617540019791,0.44034397821315,0.2534782392442119,-621.6543809235541
1.815633302237271,23.57350306378089,6.011590062415806e-07,-565.8923010683199
0.7275757364268765,4.815292104750711,0.01410414519210074,-384.2354871357882
0.4558708583987841,12.16642567511258,0.0002432872964628907,-113.025780963276
0.7370450502924005,4.629180912723996,0.0157162831223816,-321.2603133349195
1.120773587315529,0.5690041244313306,0.2253274612077028,-398.4598845826268
0.9010467605135678,0.4230486095852939,0.2577098770081582,-342.2289165179287
0.8062632444973109,2.223980556265019,0.06794116042780485,-322.2231861384887
1.750908086206177,18.7531643684647,7.43881428594273e-06,-522.8019145078656
0.6165815059769068,8.23931603173429,0.002049628844379869,-246.1646969123092