dN/dS,LRT,p-value,Log(L)
1.028145822447522e-15,9.831281007360431,0.0008578440981136803,-40.68127595359559
9.555848176237971e-17,9.831281018567296,0.0008578440928870279,-11.39381485488337
1,0,1,0
9.555848176237971e-17,9.831281018567939,0.0008578440928866948,-12.54892494815646
9.555848176237971e-17,9.831281018567648,0.0008578440928868614,-12.08723113423168
0.4065575312904628,2.23015179175988,0.06767027553520882,-23.56540401362954
1,0,1,0
0.297753974840702,4.575254668708681,0.01621846206717886,-22.60624296419587
9.555848176237971e-17,9.831280630433106,0.0008578442739048397,-17.7522982432783
9.555848176237971e-17,9.831280635716798,0.0008578442714406442,-11.72500400295594
1,0,1,0
0.1680799734053882,6.314734155124114,0.00598693484380991,-31.8267496445915
3.17603086687411e-16,9.831279979700113,0.0008578445773935184,-26.95993676537274
0.1680763746106757,6.315532402100132,0.005984240131985119,-21.59552615058666
9.682324783204268e-17,9.831281017665468,0.0008578440933075804,-24.08231217237586
9.555848176237971e-17,9.831280636243157,0.0008578442711951739,-12.96019332683885
5.840566125974614e-16,9.831279986935101,0.0008578445740192731,-49.46496285894788
3.17603086687411e-16,11.88688769993465,0.0002826525144177805,-21.94539285493441
6.728744545674702e-16,9.831280043050725,0.0008578445478480967,-53.04721357767404
5.840566125974614e-16,9.831279975907854,0.0008578445791621592,-17.50342431398407
9.682324783204268e-17,11.88752071686876,0.0002825564678295978,-17.23816791011204
9.555848176237971e-17,11.88725200560945,0.0002825972349085881,-22.32342794879346
1.118182374356311,0.08380460500944764,0.3861031199086462,-68.37887166342568
0.4781935789188653,2.113672764089074,0.07299428544471054,-32.19669133682363
0.5961369059843119,1.277020313448844,0.1292268968074395,-46.42107141888556
9.555848176237971e-17,11.88689377683175,0.0002826515922237927,-28.17611119786747
9.555848176237971e-17,9.831280634380089,0.00085784427206409,-11.03254500555588
2.009083622674618,3.111258909282327,0.03887642044074613,-104.9212992296596
3.17603086687411e-16,11.88752523297534,0.0002825557827267899,-10.74655428234249
0.1588523816007716,6.892527943398804,0.00432783879858023,-21.20921791254263
0.168145015192646,6.311474570247519,0.005997951448163341,-20.66240099998083
1.067834363305433,0.02095631252383612,0.4424490166893258,-51.88687741060815
0.3188021368161025,3.962668846954422,0.02325994625959743,-21.30812083592065
0.1484999853865701,7.633662256218713,0.002864442980278936,-37.07891367163802
9.555848176237971e-17,9.831280635717555,0.0008578442714403112,-11.72631285990548
0.8238137425458741,0.1997732670354111,0.3274519603129484,-60.12546780985545
1.032507544474485,0.005037302767732399,0.4717092407096209,-66.72327062830405
9.555848176237971e-17,11.88724541434146,0.0002825982349664025,-22.31443325692695
2.731941657024047e-16,9.831281018567285,0.0008578440928870279,-11.38935052622156
0.9625383913094488,0.008821386037055845,0.4625854658729157,-59.85635949783628
0.2027960599878313,4.656050656323075,0.01547214469655078,-38.33649727978877
0.610475531467464,0.8636535019333849,0.1763591503794513,-80.78778153914041
0.6366102050677471,0.9503441265697177,0.1648158591914984,-36.74547667682792
0.1439497015290638,7.99808566248241,0.002341341546245657,-35.59088947014602
2.685608176544373,10.74457962625038,0.0005229259762787319,-114.5948267728495
9.555848176237971e-17,13.89519025984971,9.66462401499335e-05,-17.24961246473703
0.613365312880867,0.8457420152449657,0.1788798492708082,-49.3377677242916
0.7998209518566928,0.2680498259859121,0.3023214877944067,-54.18881212081136
0.2884961365102302,4.88004722270982,0.01358443793046876,-30.02977536799655
0.6444583425852107,1.120117358538295,0.1449465925391119,-50.35870142653226
0.4243291607437978,2.98855896592994,0.04192737986207273,-32.05264553307643
0.4074152750041343,2.217855680303401,0.06821121110989015,-34.6435054902607
5.840566125974614e-16,9.831281014906764,0.0008578440945942178,-23.2343330239552
1,0,1,0
3.692163400023141,20.62529356733214,2.792665269424344e-06,-113.6970008576117
0.807226267114342,0.2455221802174208,0.3101229237538701,-65.80158449792172
0.4073185323891795,2.219220885116719,0.0681509142117232,-24.81250603829688
2.339830294935938,6.058045832124719,0.006921539134802979,-101.6008884587733
0.4246273203061051,2.982590372155528,0.0420822362569076,-55.54804126846802
3.053037344100119,10.58239585979743,0.000570848018410286,-120.3863102936105
1.340437250813539,0.6215592870012188,0.2152342174048408,-66.69783673584143
0.7470037901312114,0.4681074120024675,0.2469295691992284,-60.00384316964806
2.33986612727226,7.710300920490823,0.002745329904800753,-104.3602147532241
0.3369250850434296,3.509611490781637,0.03050688090633885,-35.0039423846855
0.8019614873429155,0.2613761653515496,0.3045881416887931,-67.73830746106289
1.590238101264103,1.661313412736973,0.09871304142750476,-114.6716669321008
1.999212250616523,3.978970540026438,0.02303585640528649,-88.72052914952761
1.617929607394378,1.777679866549903,0.09121724189991437,-62.29639839871827
0.2009198767946047,4.729368652038005,0.01482588383775701,-16.29714516627649
0.4325667531299252,2.835171090928753,0.04611048941196344,-30.82745745374283
0.4078089987304181,2.212278057067138,0.0684581790156259,-36.18096867041321
0.3403374196607353,5.147277889012564,0.01164142243176203,-28.52572383863759
0.6018434134742925,0.9190032287626764,0.1688684140327209,-60.12721364770174
0.5649941318665931,1.983020428232791,0.07953628615993458,-44.55974001916345
0.148468906143824,7.636784407458059,0.002859488985872627,-31.88014069017128
9.555848176237971e-17,9.831280635714723,0.0008578442714416434,-11.72139096403366
0.4459035681863178,2.601672240887709,0.05337551218649927,-35.84058437740567
1.324063982160503,0.6442300583645988,0.2110915849357196,-87.31950466069807
0.336565472779601,3.518332140449452,0.03034674780598562,-25.41428289531252
0.1439837492815739,7.996211862581781,0.002343765793573815,-21.43314097823668
0.8558770174606138,0.1018218505625441,0.3748270999874058,-37.17843312358197
1.287087691975783,0.4670456354392059,0.2471747316764168,-82.48228638509593
0.6103032455901289,0.8647273583905815,0.1762095733006326,-46.29233958076917
0.8115834884514812,0.279762431120929,0.2984284850418156,-53.94843528433768
1.550516032117532,1.329829870031631,0.1244177431969134,-104.4345107413686
0.2030736737164685,4.645319663511891,0.01556916862843005,-18.8223227289586
0.3363772870636957,3.522776338621931,0.03026548543515317,-21.653395173949
0.1486755278455085,7.621074727722871,0.002884504881631056,-21.56386724185885
9.555848176237971e-17,11.88752805112789,0.0002825553552079918,-10.75281780022578
0.1483928052050768,7.642194958181562,0.002850924615594164,-24.24746929080869
0.9593800164832199,0.01041854489433547,0.4593500511259281,-58.26115050902196
1.494757927614631,0.9874235703927923,0.1601864463819758,-72.66170948508015
0.2031242612544387,4.643364729960361,0.01558691231665432,-13.98497729562646
0.4037426807811075,2.270825544416176,0.06591483120381825,-26.12605907362827
0.6370734784899388,0.7100871363117136,0.1997074431600054,-39.65124034899782
1.01181440083041,0.0008210062880351643,0.4885705881015262,-53.06450968427252
0.8317277381039708,0.1799968408074761,0.3356879777707475,-45.60399238373947
0.433606177816139,2.815462140700149,0.04668000282223156,-40.62325879068027
0.4770680954476744,2.128999762118568,0.07226752234228195,-38.77680890888561
1.424229954934205,0.7762859589994378,0.1891397189396872,-94.74938738231911