dN/dS,LRT,p-value,Log(L)
9.555848176237971e-17,21.59628871969987,1.682511671374787e-06,-15.14877533432705
0.09249410077675728,14.78842858714991,6.013562430179364e-05,-53.15983133990339
0.4713872972533663,4.39811033753324,0.01798938769842062,-84.29198786734328
5.840566125974614e-16,21.59628898419814,1.682511439338175e-06,-42.58456803552723
9.555848176237971e-17,23.43384629616315,6.464187697896584e-07,-16.05571605136588
5.840566125974614e-16,21.59628918160364,1.682511266143383e-06,-46.7308840128895
9.555848176237971e-17,21.59629911058072,1.682502556166199e-06,-19.17722619542258
1.031086762898932,0.01009535481500734,0.4599833595649785,-98.69925332412608
0.09236411023249018,14.81586241252796,5.926713802267836e-05,-39.75035945916062
1,0,1,0
3.17603086687411e-16,21.59628874415852,1.682511649891971e-06,-23.10800322462716
0.317238922995427,7.977561780359963,0.002368034334154112,-63.67728450555236
0.2839395199958736,10.03426207317821,0.0007682754522723156,-73.25010539416988
3.17603086687411e-16,23.43712244367749,6.453188631239115e-07,-12.54108245648435
0.08517551030708176,16.46696404178856,2.475260533985058e-05,-55.92458747579038
9.555848176237971e-17,23.42965941394877,6.478271763477039e-07,-30.04050581881763
0.7102386795609896,1.174672942767671,0.1392215764584597,-83.18017424974092
0.4615965112860395,3.906941785812364,0.02404351369688135,-99.77179601091298
0.09207731753355625,14.87569471416681,5.741653599794505e-05,-53.78081469113695
0.3716250219490198,5.573499354576143,0.009117142169445536,-80.60404725530054
0.1854378418655041,10.77142797320646,0.0005153947640971213,-41.03282416556727
2.509897052099161e-16,21.5962890163767,1.682511411082999e-06,-22.29405756479136
3.17603086687411e-16,23.43668199341901,6.454666269806175e-07,-18.34839200050647
0.2108299465279732,13.04279812153712,0.0001522264437009424,-43.36896832582813
0.2780509966401547,7.852838787320934,0.002537048559191402,-75.52188146552871
9.555848176237971e-17,28.5262421914276,4.621855459463475e-08,-11.81016769221524
0.8487332751874253,0.3382927970120306,0.2804081566596328,-105.5443274667772
0.09239281808548747,14.80985720273733,5.945616219599215e-05,-42.07521640797194
0.07874511520499107,18.21523472937906,9.864717953722568e-06,-25.33495745894259
5.840566125974614e-16,23.43316532846963,6.466476281663525e-07,-39.61751206968621
0.1705277770851677,12.31567462101678,0.0002245851701824231,-29.18613891091793
0.08511086425161365,16.48978288720046,2.44564729579011e-05,-25.59381799173954
2.400457162586581,12.73521557871754,0.000179417230636747,-141.7257759549977
0.2722977024906758,8.180823959454358,0.002116776296397171,-52.55730309924051
0.08519122299065901,16.4660915708738,2.476399914885796e-05,-51.38577593491785
0.0851420976580184,16.48056830237131,2.457562434204918e-05,-35.3618819496308
5.840566125974614e-16,21.59629893320333,1.682502711763956e-06,-36.36826690370579
0.1705432580606478,12.30971058179192,0.0002253039187726791,-41.84496103343257
9.555848176237971e-17,23.43214408118668,6.469909994422096e-07,-31.76116635105869
0.1570118847864715,14.01694379569052,9.058535042427707e-05,-35.79968817683112
0.395381561749243,5.968147509165846,0.00728328782692983,-79.02724670016336
0.09242781803455025,14.8023048519635,5.969474701927879e-05,-67.08551517303306
0.09234790012284845,14.81960963125567,5.914949456897745e-05,-38.0512451386899
1.296399914604963,1.227179273059392,0.1339781522475614,-140.0527559412019
0.4814470365399283,4.81399835111975,0.01411473681696523,-59.23237684557111
0.3454109097867242,6.614705207174609,0.005057003988093389,-57.62971693293145
0.8827091475001202,0.2095245917467707,0.3235701397657415,-123.1132854599078
0.4707469810269735,4.417395471975865,0.01778714844915102,-60.90613887194976
0.4735195794576617,4.349991415778632,0.01850456636325659,-62.67088561701069
0.3762539870508907,6.755758323004216,0.004672281246488996,-60.54784942745083
0.09237358988318661,14.81388046601373,5.9329456182311e-05,-36.45064944182554
1.819355747922518,5.556911503656124,0.009203930713353736,-139.83121054974
0.9655508316190793,0.01478064526335743,0.4516175387189642,-100.1507094492002
0.5574049444495653,2.497424932255456,0.05701630746448116,-73.11538114420799
1.473649379258726,2.626505626482782,0.05254638764058117,-124.2590757868024
0.3930024136491259,6.062704413393988,0.006903304780274899,-88.68470049897205
1.078630536663745,0.05519742144801398,0.4071271411223816,-76.36853514406926
0.5758357971191268,2.930971489598932,0.04344759450155716,-88.38814230043987
0.6360129790558121,1.900090711397155,0.08403408298187498,-84.00183938706795
0.3173543591608476,7.993742095477771,0.002346964985583455,-44.69810406292297
1.358325838207033,1.34660625442126,0.1229361466951652,-102.1101028878946
5.840566125974614e-16,21.59628948887639,1.682510996636744e-06,-48.99492081995727
0.5952534180094985,1.603831737018425,0.1026805209965642,-56.44516894203916
0.4225670678306402,6.017778183882911,0.00708123268710048,-77.28270916987353
0.7899150963868088,0.5392664322556584,0.2313684499106352,-78.63870274080119
0.6418814526171204,1.140365010332118,0.1427876061377704,-63.56669158972761
0.3933756065441646,6.060851451734877,0.006910551611729154,-62.02580819946814
1.132862323313572,0.1776090370471479,0.3367180496835633,-133.0557067847739
0.5421017008039335,3.695468619852136,0.027280226898306,-95.1164287508135
1.12138307928236,0.150354805119207,0.3490982621088103,-110.7334038191041
0.282506499406126,10.14207692797143,0.0007246139299845744,-51.0048696813603
0.560804220732721,2.845053151848987,0.04582778130642834,-54.33872832481676
1.659521436053057,4.31433578717099,0.01889626106351849,-138.0092345421662
0.7965129918396064,0.4983866896504026,0.2401049278897465,-91.76753088467802
9.555848176237971e-17,23.43458776884138,6.461696693826902e-07,-16.37073610926149
1.797907198449554,4.795200732960495,0.01426956543343788,-153.2857619148191
0.4759082380126616,4.272705295998861,0.01936461207379281,-70.62063269054124
1.033138006544067,0.009408400783385673,0.4613644236958154,-60.38079451447832
0.8572059687416416,0.2972246937216596,0.2928137712079474,-113.9099553692987
1.301867479836949,1.010130543560877,0.1574357834525354,-131.7141767319845
1.03146917615924,0.01223437646501679,0.4559631593048579,-104.7916838596262
1.513679438682493,3.428984383699515,0.03203074264968325,-161.1317459224908
0.9023394492174592,0.1518446272806102,0.3483893812464282,-113.8379447987032
0.6609035251160384,2.160112968557939,0.07081713857555799,-73.37561022568111
1.270300684114525,0.8382019081313103,0.1799557664426343,-119.6992208731902
0.7933097716771215,0.5762847877739432,0.2238861306403429,-106.0986605694147
0.3152236016219076,8.106291665881827,0.002205593847072085,-52.41523250509483
1.360866944674865,1.190465740660386,0.1376178155360708,-100.6881005072082
0.4581849282414797,4.000174036058894,0.02274778298032276,-62.27166282789378
0.9148862134563834,0.06485435218291968,0.3994908573201495,-52.74100496988574
1.669797460857315,3.762944787209278,0.02620010843617437,-141.0710921861979
0.9640720353237301,0.01610245780526043,0.4495115699415049,-116.1442400821857
0.7775267152339229,0.6157616761843201,0.2163133240325289,-81.15257639972924
1.245200763146071,0.6646749639860161,0.2074571703224597,-124.6313633966084
0.7290524760232237,0.9950026657748481,0.1592613727414237,-93.67499448350448
0.8166449559542945,0.3579246914838166,0.2748305369273571,-103.4200099680313
0.720810921727518,1.072224659791345,0.150221744035381,-95.50944390846786
1.278459554905537,0.773697254064956,0.1895378509465565,-125.1829539354512
0.7791224129653399,0.6059745733398358,0.2181537463800632,-87.09305771994414
1.130234019766791,0.1712157565674488,0.3395167894956331,-107.7505111595836