dN/dS,LRT,p-value,Log(L)
0.03414220291845253,391.1644251465029,0,-368.2017573147983
0.02553365675303196,406.3107705424497,0,-346.3578040256051
0.02357213176480618,369.6890154532784,0,-513.623077309582
0.08032539581491698,297.241772876383,0,-653.3433929259172
0.02966681779356255,401.1036144868511,0,-352.3030686287735
0.04243761797654222,342.45863789347,0,-602.27577376453
0.01414565711299149,385.4304342944833,0,-561.330607947703
0.01701221549556273,421.8452742551481,0,-367.3252792814137
0.0141271060398455,385.9536014349997,0,-533.2854635016089
0.0188663082823178,377.1471730577707,0,-501.5003318742982
0.028215652862629,363.4612101871621,0,-581.9081928954379
0.2601511750930141,210.9819671157456,0,-784.8617952910307
0.0426277198027917,378.7420487568602,0,-323.1086701819397
0.2488601490251502,181.2315007595728,0,-754.0722840509123
0.02555921672490624,405.8508816006608,0,-362.0418114590102
0.1038508768776615,273.9662506246655,0,-715.8679670130653
0.4725360505361199,106.5199928926538,0,-996.6048617918892
0.1039602242714426,274.0389054481243,0,-600.3424133391879
0.09430151873179038,283.5639404262226,0,-642.465720828033
0.0383587164437935,385.0581746384304,0,-408.8276799749599
0.06850195534574485,342.331707217405,0,-450.7697477728094
0.7691157621213731,11.54068101283565,0.0003404484699204291,-1227.701395857365
0.1139507219296921,263.0695325214378,0,-669.7246600223623
0.09463174580919904,282.1920731873145,0,-618.1114390454452
0.137732408112959,242.4871279662907,0,-705.5036698837573
0.1225832298508564,257.2317378304981,0,-721.7508605978243
0.3141766713371935,166.6455620219408,0,-762.6920634856352
0.3429027134434263,145.159504437923,0,-831.7795230652059
0.05184130773092559,330.5768589154993,0,-551.6283883591841
0.146610899918448,251.7739627381434,0,-671.9816314205723
0.3251453653152694,159.9136476550759,0,-811.5008520188857
0.07742950276105302,330.193774564405,0,-475.7313834760711
0.1366810308780238,245.2377524834101,0,-717.2458429428495
0.1069705862769615,299.126760316568,0,-481.7264940391402
0.4605315260063905,92.46134807706926,0,-991.1331861107027
0.2359345733784658,174.9387306071899,0,-882.6017983518791
0.2170234799776007,186.6570129785271,0,-813.4638496599996
0.1870655313297575,203.9056691449903,0,-782.3713497130515
0.5019742160756031,70.73653162795313,0,-1017.520388279869
0.4432180301634401,93.5318112666489,0,-954.6997780493302
0.1901470852967913,244.3043651209596,0,-639.7305785566098
0.2110545549785318,195.9571858366073,0,-785.576819680055
0.47104298128774,107.5304290710512,0,-936.0644015519442
0.09793556821391876,310.1828069933516,0,-452.5559775122896
0.371417837628927,142.7751787956008,0,-940.6419344707638
0.5689052900861776,54.59909433709345,7.388534228880417e-14,-1095.746556952477
0.184288136602152,226.7801104775174,0,-593.2055856996429
0.7128794631361498,16.17085378680849,2.893891710537e-05,-1193.409231161545
0.6647338949033017,27.07659313398653,9.777572690383707e-08,-1154.282925942143
0.9100554390950257,1.539386192842358,0.1073545961553073,-1463.058218787138
0.6615733912037806,25.39321030586279,2.337804309027192e-07,-1169.353560863035
0.3406749165651891,118.7381036671657,0,-957.0034002082002
0.9142433409168786,1.481901562571238,0.1117386210574978,-1298.59887485456
0.6533203868661748,31.18851373839152,1.170737157218937e-08,-1191.245156802385
0.2598440241199955,181.5599242628221,0,-664.8491495367488
0.2252246137967131,197.8320848775618,0,-619.2369810099981
0.2923993932740483,141.4163467621556,0,-866.1503329491902
0.3040184927049006,136.8499476543591,0,-904.0294899972838
0.7803241893852878,10.00035723809333,0.0007825493111147663,-1037.479297537557
0.8890658140119826,2.410011598840356,0.06028073643302967,-1293.298952857271
0.6515189171725931,30.68357351243094,1.518627257279803e-08,-1134.640017256384
0.4854002387828364,81.61741426537492,0,-1034.623295159088
0.5944536562726525,48.58836547620604,1.578681629865741e-12,-1254.576163209316
0.2521344843084312,182.7884619395797,0,-681.1312259931146
0.6786522540651093,30.23472635384269,1.913969344125022e-08,-1264.601819913551
0.4830424146309327,101.9566442089283,0,-935.3723561367975
0.9870288460006537,0.0370658695937891,0.4236654996519328,-1485.692682625554
0.5161843055170729,57.40670375889886,1.770805724277125e-14,-1059.221411306747
0.5593752172833948,56.94655201513933,2.23709939461969e-14,-1095.589304938657
0.8802940916818242,3.970564115501475,0.02315112906535899,-1460.961265741402
0.5670491521443863,59.00442933145723,7.882583474838611e-15,-1114.487474833343
0.560731158302737,68.28448194731391,5.551115123125783e-17,-1039.34922363242
0.7218808620881652,19.76907924015131,4.369249302749179e-06,-1180.378901717232
0.5919459680379111,58.01939277452129,1.298960938811433e-14,-1118.158065508434
0.6299824163720361,36.52474687719314,7.537013235747736e-10,-1089.578495482755
0.5700839805138219,52.40264750900633,2.260414078136819e-13,-1072.557760145361
0.8365225370345737,6.148188801617835,0.006577337640573222,-1326.44721754393
0.6289576007923714,36.23711417809363,8.735569489992656e-10,-1207.523956944114
0.698289156840767,20.29455916046118,3.319455228079082e-06,-1220.836016815983
0.6577081255541088,31.8257582416627,8.432068099306633e-09,-1212.510767802294
0.7475488473420222,15.51528120475132,4.092048430043294e-05,-1156.343860179042
0.6746319577089459,26.99918989795651,1.017703742944853e-07,-1157.9932260736
0.7020337633245125,20.06284535658642,3.746924168879229e-06,-1234.60461809482
0.67783488081117,24.88094183823569,3.049116253373008e-07,-1076.081548563441
0.6615556698844219,25.78197007983044,1.91121287795859e-07,-1168.925266579891
0.6467851083980477,36.41166597259735,7.987210892679286e-10,-1190.635645603798
0.6165645704174152,41.7681456102564,5.138206526922318e-11,-1136.398104884363
0.7868984425983127,10.2725869904898,0.0006751067323065296,-1159.504829653215
0.7690062083247107,15.69491700330218,3.721195293932e-05,-1314.190055461494
1.138029884369941,3.516032881391311,0.03038888097144893,-1504.593508271511
0.8668309584670695,4.806748227755634,0.01417424506390846,-1384.771901395871
1.051846467412329,0.4975866093059267,0.2402812344384683,-1483.687213111841
0.8921257190341505,2.593889770569604,0.05363829436177697,-1399.832931191438
0.7133468373689762,21.64750481856527,1.638179655150118e-06,-1211.965434717299
1.023117104080979,0.1024319159350853,0.3744652651701893,-1535.90629667257
0.7927148416586047,11.32259944067891,0.0003828472478700773,-1345.686759501123
0.7776658820455213,12.79275307725675,0.0001739823309264144,-1259.390190848095
1.050629060157242,0.4380799866107736,0.2540253113998557,-1416.72941124014
0.6012073077954999,43.02056016907818,2.708377966342823e-11,-1138.834604264127
0.9310880826663112,1.176030889516824,0.1390827556833559,-1483.870854371902