dN/dS,LRT,p-value,Log(L)
0.0337964555692389,50.16908311700087,7.052691763931307e-13,-111.4518564004177
5.840566125974614e-16,58.98502227571242,7.938094626069869e-15,-83.72137271126401
0.9036575976279687,0.2522189082862951,0.307758495750998,-203.8525297023605
0.03378310059946601,50.19162496564758,6.972200594645983e-13,-71.58483802128785
0.03378624078298818,50.18598368058997,6.992184609089236e-13,-103.2309905323802
3.17603086687411e-16,58.98502402019395,7.938094626069869e-15,-94.93098762596713
9.555848176237971e-17,58.98503709695869,7.938094626069869e-15,-54.39098127857212
3.17603086687411e-16,58.98500524600095,7.938094626069869e-15,-69.96232727236267
3.17603086687411e-16,50.06063899371733,7.453482275820988e-13,-58.22402263908945
0.1624090977670109,33.19971867616573,4.158128119602367e-09,-102.5388510502101
9.555848176237971e-17,58.98500600307983,7.938094626069869e-15,-99.22690615156927
0.123841757504502,29.70485193920103,2.515437280692367e-08,-90.95711613529531
3.17603086687411e-16,50.05967994148222,7.456812944894864e-13,-66.9825121187683
0.0397699693254864,41.58885922462999,5.631661803562338e-11,-55.85110925501478
0.03978169283596156,41.57485984116545,5.672134983925048e-11,-67.23486046385587
0.1701751091644449,30.87970234305882,1.372640395791436e-08,-92.92051815522902
0.03976939366024185,41.58540101928753,5.641637157438595e-11,-69.82700450625586
0.1196104506966116,31.21164047413365,1.15687252000285e-08,-54.03403565612474
0.03378878691088175,50.18196748022035,7.006617508409363e-13,-88.01006712511759
0.1949245343795315,29.75160011870668,2.455503922416113e-08,-85.63547101562348
0.07963625730553477,35.876543573253,1.051122078266076e-09,-70.8559696653635
0.0397795215435259,41.57566020308974,5.669814617803581e-11,-47.47291702896347
0.03380299976506019,50.15782015157345,7.093214904330125e-13,-138.9456634287229
0.03379315056990663,50.17473967624892,7.032152637975742e-13,-94.49510524630034
0.7107751034714125,3.244221865559211,0.0358378588215858,-163.1901932122328
0.2038776111594401,27.61784684887425,7.390434170195803e-08,-129.6620199666265
0.5373039955000644,7.138098111890827,0.003773157585012399,-161.5571458995728
1.183735667043789,0.9056555336932206,0.1706348837062291,-228.3371917420454
9.555848176237971e-17,50.0592089820386,7.459033390944114e-13,-38.64895058152162
0.03976831740778215,41.59379851685887,5.617456499962259e-11,-24.76313508567928
0.6067827505999129,5.004387870393771,0.01264157145072503,-141.2028865630258
0.1691799076114437,31.16604675645766,1.184365649997687e-08,-128.4323365469209
0.1015868048548075,39.1392477055968,1.973153307410769e-10,-87.5015127336505
0.3712440394694184,12.54264685572022,0.0001988842312203865,-106.080062208864
0.5187967032431745,6.990134357041313,0.004098010058635138,-145.2083505689082
0.4083871086271096,13.18622748409757,0.0001410070170709821,-147.4769796764811
0.03380413933216923,50.15608646057422,7.099321130965563e-13,-97.2889631080682
0.1594216840493398,27.30514078488335,8.687442976107462e-08,-70.77783488883277
0.7363812999162639,2.163215073252786,0.07067433365965714,-187.0596591977328
0.4186511614243534,11.28817671307843,0.0003900112419558122,-124.7223872067111
0.4557895850304938,11.3438525774485,0.0003784906244164166,-154.476299584485
0.07966137447277108,35.86469463145099,1.057533949300193e-09,-78.20936364683021
0.03975840029100788,41.60076766143575,5.597466934403883e-11,-73.88122991653371
0.4127255701059489,10.6653455265361,0.0005458072914720224,-111.8009355955007
1.313894489637834,2.087771236480364,0.07424127598291091,-234.2657239089135
0.9249292331864575,0.1796912354857909,0.3358193611317388,-219.8532453414285
0.2039447861297948,27.60280243048004,7.448139377475016e-08,-97.76694889376813
1.171737566126436,0.8496050472941761,0.1783320460135728,-277.0136890871494
0.9372560463825186,0.1017621505803845,0.3748625726345975,-249.3827826740117
0.2466735671069837,19.69421498543133,4.543802695933241e-06,-93.79969820801026
0.5592896774501009,6.978285975817698,0.004125229507518702,-174.5912095550451
0.2407726260250698,20.59496212948196,2.837262195298784e-06,-87.53163183403635
0.3773127585447754,17.46096309349122,1.466340611716577e-05,-142.2029757916027
1.409652086281993,2.231899143902183,0.06759379564556067,-265.0339742005118
0.7204783300127939,2.382941912880312,0.06133317359482954,-169.9726610990616
0.8575619447993159,0.6656205676155196,0.2072913280753198,-215.9037256827973
0.6201747081772577,4.001343929239397,0.02273199955278726,-171.7367154722584
0.4241227120816456,12.9039583792802,0.0001639439780206087,-141.4121159480651
2.484735660277935,36.54786308281666,7.448159311529423e-10,-396.1738670296194
1.404361954397541,2.657802695672217,0.05152149619855806,-174.1958915338391
0.9372464081323729,0.1192406462649274,0.3649297667551086,-233.5999687251158
0.1999505840930081,23.74192880860159,5.507817795180614e-07,-76.75552920281132
0.8595063174563314,0.5254690305333725,0.2342590136271137,-170.7033835651047
0.3064636630936254,19.32613608023593,5.509386526325599e-06,-135.7191144363337
0.7935151956722934,1.2013358751434,0.1365274216781181,-237.3816431021309
0.2883340847463993,17.00218575004257,1.86684060654585e-05,-108.32830391695
0.9449536636353962,0.077601925014676,0.3902869506359685,-208.6353837083941
0.3313178951749369,14.49445222241761,7.028646354534374e-05,-104.5487531717784
0.734658472310639,2.093403642572525,0.07396807959929574,-186.0988737442849
0.453419773155784,9.037479724331774,0.001322500145886252,-118.6724837568557
1.312358401506949,1.336718845492328,0.1238067181747851,-214.1030473884323
0.421127533774014,13.15734738766059,0.0001431970137876215,-147.3957984385381
0.3708253969461253,12.58130182633141,0.0001948126194439292,-95.41553387907466
0.6468905704872483,3.935413237584783,0.02363976158565401,-164.7916919670898
0.5569790718790304,7.08738352300935,0.003881425067983668,-175.0324145981594
0.5436657923245788,7.305418755551841,0.003437348684990904,-228.158723936452
0.2003179945231449,23.66862459135524,5.721652195922466e-07,-102.0696610474949
0.9223615716420426,0.1582480714990879,0.3453873115349025,-203.648566721006
1.105470648861205,0.338536418879869,0.2803376246921757,-245.2907709941751
0.2787484308169396,18.19626490060529,9.963462399231737e-06,-105.0335014733968
0.8097753901899439,0.9932278838375623,0.1594773646061159,-203.4328903583392
1.279048380968208,1.050161092992425,0.1527349943385287,-248.3293482526836
0.5780867010128921,6.830600512670514,0.004480456650472031,-165.5804648443362
0.8008030315372879,1.213822213653202,0.1352882306580612,-208.2313117052328
1.40899436729954,4.058322790077227,0.02197706764302032,-268.5868170937644
0.8197510600870737,1.00451063528908,0.1581107611201816,-230.5874914750327
0.7198152487430242,2.88031338890147,0.04483428447345006,-227.9387927335619
0.6802921329437266,3.190294673543917,0.03703832880534114,-233.7392131494332
1.346867975708826,3.186100871861129,0.0371334784423325,-250.4764275880139
0.8404410044253712,0.6344393586912247,0.2128657942831142,-147.071867920758
0.5349499492612503,4.841777665933819,0.01388912292787159,-75.43964893700077
0.8992065368611452,0.2896524678911874,0.2952216615693056,-197.3322297547237
1.248695145647478,1.500645134968522,0.1102860620573178,-271.0326585447632
0.5562572957743116,8.372689956176771,0.001904507039255932,-139.027811242004
1.365515262100292,1.991150993442375,0.07911029248099472,-263.2720033177523
0.6198529357252487,4.819072173205541,0.01407324611625904,-160.2493292043474
1.460215325595261,4.383478291705501,0.01814443573308749,-256.0585482797513
0.8979970860056279,0.3562134349218127,0.2753083773895482,-207.302862514739
0.9245334655684019,0.1816367385389981,0.3349852051165731,-240.8095828583892
1.095062705445034,0.2614544926556732,0.3045613276577291,-246.8691279449705