dN/dS,LRT,p-value,Log(L)
0.01925272980301216,461.4252607686907,0,-404.7523473486668
0.08757094334396681,353.3712373754202,0,-581.0360078657641
0.3310495640401472,169.1061513629113,0,-894.9947474026358
0.02306620147656333,517.4565250996696,0,-310.7339857743492
0.02202806472683326,466.3397563536628,0,-298.5061187472402
0.04840480933876868,412.8072771806355,0,-396.243376153091
0.02610345946265034,451.0584078471247,0,-446.0533079868986
0.01486778764833424,475.7584301081093,0,-409.4397522412323
0.03702423054626832,434.3059542911251,0,-609.7784670983464
0.01319209512987724,540.8367683679342,0,-261.3983368338207
0.03356554011447389,437.134331506956,0,-359.6997697466755
0.1519415619527734,282.2387163675626,0,-643.5829471801078
0.2391114080381808,212.6797904021657,0,-794.4017991292231
0.08719396551970265,352.3577422089461,0,-517.0868128561932
0.3507960575466207,150.9137255572555,0,-882.7924624328642
0.2581508832319386,220.3118804575852,0,-761.8974334214836
0.2185760842879251,225.2547497460121,0,-720.668992141762
0.2935491518634072,195.5326791416305,0,-804.8781246845361
0.2699103658874829,220.5314751290532,0,-776.7285856167688
0.1936049151838057,247.4824991124426,0,-668.6430053370104
0.1416469978327868,295.4221502285288,0,-545.7049284820196
0.09903607982513853,335.9637911184309,0,-554.2293550784846
0.3063903903963575,158.9801062707518,0,-975.9411257691221
0.1363622335628362,296.364934610699,0,-478.1134645846965
0.07284133187282953,423.6494421699863,0,-417.2524519638382
0.1342101415185246,345.9707141476781,0,-561.9634134264066
0.138737884855981,291.8603793851305,0,-549.4339266690309
0.0827410949667004,408.9390657817775,0,-465.8665423605367
0.238911703555678,206.678715349236,0,-779.3619122738346
0.2172312471663254,270.1542410244228,0,-730.5124916263757
0.3776313786333764,134.1849443493791,0,-869.4273988467882
0.213585569484439,251.0381742527668,0,-660.5541528941538
0.2550299921700261,214.6248409742036,0,-710.0117848716952
0.4095843330341583,114.3727918189213,0,-981.3765396155753
0.2003907204664244,265.3445050738421,0,-590.0877977115966
0.4118675739138134,109.2445800139928,0,-936.5336516734358
0.6022151355801312,49.47458794040631,1.004807348436998e-12,-1101.542414054033
0.4241252309616573,110.8902242579725,0,-944.060716304319
0.5590473147721284,61.72630909899863,1.998401444325282e-15,-1035.712738189261
0.450053616646344,100.1021862495147,0,-1016.900958328488
0.240985825051781,227.5287276793988,0,-736.5383554515674
0.3967426871933187,136.0619536791128,0,-910.8240906827816
0.6185446060737457,41.87675387114018,4.860573055154305e-11,-1017.715064672594
0.6390319181813008,36.41048275758476,7.992060901962361e-10,-1075.478158735528
0.6489806200357596,36.61873509334191,7.182224259771885e-10,-1080.017912338066
0.6338482718980446,36.04670221675678,9.632227238043356e-10,-1202.798229017985
0.7925393368828475,11.53102816066576,0.0003422207499646501,-1219.499353849939
0.3098006655595434,176.4553066970382,0,-745.5959295103606
0.6896661259816417,27.34666806183759,8.50286073772466e-08,-1173.866709263134
0.6377076128486019,39.39207525212896,1.733506116430306e-10,-1151.465905498366
0.3141703171932754,158.7558332297963,0,-738.1997191276716
0.7585751996720479,15.31530384649113,4.548824584682531e-05,-1163.862572284668
0.4613875974156258,87.89196049586508,0,-939.9350502182984
0.7026728161807831,25.1577353029752,2.641366647626597e-07,-1224.145584226018
0.5776371662225243,54.06980831888495,9.675593659608239e-14,-1083.970990455395
0.5806389992357087,54.59267118119169,7.416289804496046e-14,-1042.538561979144
0.2419544703222808,225.3658708068615,0,-673.0046017836214
0.7059685677274979,25.35814321850148,2.380690628522864e-07,-1170.970739254608
0.4549020656666002,97.19786203243325,0,-886.9410284318761
0.6649053113170902,34.29792396583707,2.364429707579774e-09,-1145.090981725466
0.3890281424996863,129.2511137335252,0,-868.4656977822466
0.669217574252452,31.5576359717802,9.6803776661325e-09,-1160.821446038867
0.5250804366453554,74.50906904876524,0,-1007.598455969011
0.4759187166985075,90.38641152193236,0,-991.2646928680375
0.5123747561854046,74.00556128123412,0,-961.2161326135732
0.6007215862313173,50.21164148881553,6.901146321069973e-13,-1134.125380520512
0.9212775612121653,1.39155988874063,0.1190709242041071,-1243.305441351931
0.9641846186213582,0.3001157421899734,0.2919049349764535,-1270.707764442288
0.7642525565809336,15.15620861133857,4.948616323530164e-05,-1171.503728987926
0.9042222755008978,2.152021289971799,0.07119116672468428,-1299.129722154893
0.89976274071484,2.333912804650936,0.06329167000935759,-1238.740761058481
1.003930880344074,0.003089318734055269,0.4778375454225585,-1241.861474340872
0.5042223520774439,68.20950399307753,5.551115123125783e-17,-1014.586705758271
0.8113530345963813,9.650516423537283,0.0009464917946368501,-1243.739380550038
0.7628751980534968,14.41832381694076,7.318555792795722e-05,-1068.211846972948
0.8424933407450054,6.652763636093823,0.004950107426991979,-1262.149566008276
0.6318337523773934,38.69510063761891,2.477255622856944e-10,-1052.428951807343
0.7692691809874977,16.25278022441171,2.771409950869108e-05,-1206.848030337517
1.006917730835942,0.01055453364779169,0.4590865441332989,-1278.519519379743
0.6292380169309699,35.39322548023756,1.347111810989787e-09,-1085.515340732228
0.6876688545243484,26.60251033600662,1.249594072660898e-07,-1068.658135720398
0.9716433518664515,0.1903792907814932,0.3313005622369635,-1334.699234458685
1.030287854118952,0.2174051257084102,0.3205121176122151,-1359.936540237938
0.7096689690722737,23.00536917999852,8.077479225487849e-07,-1169.208426973934
0.8076737497387547,9.414879820806618,0.001076158342654288,-1191.368164997882
0.7985097566299261,10.55654700749119,0.000578886366638498,-1232.063461113372
0.7669775834621537,16.67227184721878,2.221281286929333e-05,-1207.941366872119
0.6394274952861358,39.54377726841176,1.603934762783865e-10,-1068.164147967436
0.6756976804316509,30.53062325447718,1.643189179167948e-08,-1033.268776517312
1.203212151886346,6.995773234221815,0.004085120384230867,-1250.144605435939
0.9683936884779955,0.2367433565295869,0.31328409626571,-1302.062558144919
0.9387900916767772,0.7365712186383462,0.1953807288890186,-1176.803903213093
1.053256237927326,0.6525280809983087,0.2096051361142993,-1379.378928043951
1.077993213371256,1.320678422446235,0.1252351657150048,-1346.3643501692
0.8994149877376703,2.552819951898982,0.05504879447719546,-1254.51410526937
1.085014195625946,1.649128894280238,0.09953876738684614,-1396.0181121449
0.9192417367263809,1.713683267329088,0.09525409100333981,-1281.667333128508
1.005267685081704,0.006230057937500533,0.4685438657868559,-1323.332936978028
1.041453232456936,0.3641032776040447,0.2731180822896741,-1357.958485218901
1.118886659452136,3.19794565317261,0.03686541581626301,-1364.281067165054