dN/dS,LRT,p-value,Log(L)
0.04063073801574742,161.025784874403,0,-373.761986269261
0.04066348608171665,160.6613418619927,0,-132.844545543704
0.07110082509520922,143.7463683971624,0,-318.4093983830444
0.1108113895760714,126.1557421871852,0,-314.3523398874261
0.02029719160667159,175.1475296086634,0,-301.9582698533654
0.1641870905495962,103.3638142641895,0,-437.3247894506197
4.42106668734662e-17,194.6466449403272,0,-100.4822474309863
0.2004221417572938,107.731939895193,0,-281.2474940734025
0.01014620989728604,183.5551605922066,0,-162.4815933855819
0.07109752024712883,143.7797201477565,0,-351.2529245510974
0.02031453529719798,174.9357871405153,0,-122.233858647445
0.06170854582602198,147.4928374649051,0,-165.1522237727612
0.3721730306752815,57.29812324459442,1.870725796493389e-14,-393.4650599329208
0.05082971384892521,154.5470985507733,0,-167.8192591093453
0.07115868865595848,143.5978786437817,0,-360.9336853946732
0.3510039407172191,57.94113240731212,1.348920974919565e-14,-351.2963483147184
0.6111321353474871,17.2566437766784,1.632768387477279e-05,-475.9407239570554
0.2341086625869729,96.25558365850702,0,-311.3670205603403
0.3222671319623135,62.69503995930779,1.221245327087672e-15,-368.497671357249
0.09164178753325883,133.3476770999838,0,-211.659031652126
0.1636592273883982,103.8570759847782,0,-382.7072775480355
0.3062611663571799,67.93865050184854,1.110223024625157e-16,-414.1350461606489
0.6946327460221178,9.625984013290235,0.0009592181815692435,-446.7366784625394
0.05129311690118311,153.5902275936513,0,-168.5221510037691
0.07134831192614247,142.8855329546352,0,-228.548830673273
0.5168042102733523,28.89076553498785,3.828856293131011e-08,-452.6959775583351
0.4386291323484407,38.40876161207007,2.868711379555577e-10,-435.2801762344481
0.7919608976425326,5.304653117746739,0.01063426720980076,-531.2389825919718
0.1207748814239849,121.9975558748247,0,-222.5870001772072
0.123050365637827,118.726516100486,0,-227.7222352689302
0.1020493166532356,128.1482948991322,0,-180.49901804812
0.3669734137371552,51.05210586753924,4.497513472756509e-13,-408.2886938793399
0.1865480848143311,96.38201143602726,0,-292.0018531883563
0.3015226397700028,64.47582488993532,4.996003610813204e-16,-345.4388641015133
0.1531687791245258,107.7909234484461,0,-231.2879015104689
0.2172899421395064,106.1816861035994,0,-289.731673837163
0.6334257797614424,15.15511121854661,4.951493357691072e-05,-499.830430375429
0.08128792125055886,138.3643079866744,0,-217.768642394163
0.7855608528877753,5.923520029734846,0.007470040769635089,-560.6301293434786
0.303634421916973,64.97274680162081,3.885780586188048e-16,-288.1298441307355
0.2530195807338186,77.5317638875448,0,-345.0085022660668
0.3353598082950067,68.11285764417437,5.551115123125783e-17,-433.7716747020914
0.7439666121691466,6.85060039069856,0.004430574491179895,-469.6180956940022
0.4486422393111617,42.14038947472,4.24751900318654e-11,-437.3681188492617
0.5527068947139641,22.42359403962951,1.093355968428966e-06,-557.3109240804137
0.727721815314685,8.002384439950788,0.002335789605778127,-497.9826046942008
0.2417835284417203,81.03164166884699,0,-275.662453049059
0.6844150305574311,7.780554985837739,0.002640578532468185,-426.6446562892867
0.6380564631939724,14.40661138787232,7.364215278182762e-05,-521.2583630292989
0.7639298218646298,5.901276084620349,0.007564959586075504,-599.516188920819
0.6860420393512906,10.12682490245447,0.0007306345430607153,-441.6748952136236
0.8694155777079572,1.792689857189998,0.09029938696540851,-590.2317858795504
0.5612422786598152,23.68670642704058,5.668144651416185e-07,-504.8446260630912
1.256205870583664,5.106721053685987,0.01191666138452152,-701.3193680451915
0.4901490032800945,31.27088012183731,1.122103560069476e-08,-430.4224521138666
0.2269859011617682,83.10033512416464,0,-272.7747624177678
0.4048509920043493,52.19225190808834,2.516320485312917e-13,-403.7439403129022
0.8159268219507062,3.947083552370259,0.02347633768577723,-585.459181107896
0.6274053990993577,10.42319705978139,0.0006222114120510991,-420.0874156561959
0.8281134321015184,2.986241636757768,0.04198743019291157,-614.8133749198994
0.6715390420361117,12.00898575444535,0.0002647233104575153,-512.4450818017137
0.7567225081065891,6.803064263423039,0.004550077907339245,-578.1018898729342
0.6604332821885105,12.50017613656973,0.0002034568258426073,-557.9709789345778
0.8137779715345667,3.94836480701133,0.02345846850181971,-605.0060300744109
0.757003642511206,6.389941784352686,0.005738439615794622,-575.1017136862389
0.665793356967855,13.70004129076483,0.0001072248857002522,-547.0758522474653
0.4591668856919561,34.40954459544776,2.232640849975098e-09,-390.326094144313
0.3842360696866222,46.83381226057759,3.863409592241851e-12,-384.7587094044866
0.9523830924077955,0.2172099747933771,0.3205870251516937,-551.7784910331728
0.8818924910404025,1.491442797199625,0.1109963683313119,-622.8304355667991
0.4279928412504016,39.17526998323319,1.937081606229185e-10,-424.4179759984689
0.6984202728945539,11.06929901304943,0.0004388442857481412,-544.0272120664847
0.7341778583049438,8.162427358459126,0.002138354706168633,-561.9274427338343
0.5511408340958981,22.61341340992101,9.904837017238322e-07,-453.1751591892598
0.3204510329755625,57.77718033155736,1.465494392505207e-14,-278.5048992874693
0.7938820521390678,4.350193446593039,0.01850237134633226,-568.4125763201314
0.5542050342104914,23.32967535974126,6.823901198549365e-07,-439.4600743245182
0.5412734884723606,23.05837854488527,7.85780755185872e-07,-381.5244822816599
1.349745921484042,9.528595909722299,0.001011474142572133,-636.3202501529753
0.3870340574936836,45.92822885102987,6.133260566087984e-12,-363.8516866775994
0.6239293207238091,15.36228217836606,4.437108193200423e-05,-494.5579819994933
1.081425609785523,0.6209291521490741,0.2153511083697616,-637.0480160577235
0.8088938505211518,3.609077472534409,0.02873249408288903,-534.7901256101311
0.7768845792854463,4.863964746971988,0.01371162360840805,-526.0847087592086
0.9452653501259127,0.298653964355708,0.292363748629673,-649.8116050688734
0.5869732503800912,18.32702946848713,9.302433573776803e-06,-454.5486650369982
0.9211912353356145,0.6857005305780604,0.2038153255438627,-622.2399084369839
0.4794893969407965,41.67725022019579,5.382722045865762e-11,-426.3733109300412
0.7259568339928353,6.302351083461076,0.006028897433005387,-427.1126487586053
1.295295587271275,6.951060066792479,0.004188479005985513,-677.2743419794372
0.8004552212735031,4.295225270436958,0.01910976626776079,-590.1034994160576
0.9440376343113926,0.33364077834608,0.2817615448022072,-592.1023733079686
1.208240554319373,3.192102274841773,0.03699739841455013,-658.9309553513725
1.201690237144055,3.885796408088709,0.02434808089925011,-747.6914575539929
0.5571453222648842,19.81904256193786,4.256516388911891e-06,-396.1256999850849
0.668731389628061,14.13380814434436,8.512809161964618e-05,-492.0098108642908
0.4099744969095381,56.9623088663302,2.220446049250313e-14,-353.6652654380314
0.7555994990634202,6.912860677698063,0.004278898339325043,-570.8894332996306
1.049845922619867,0.1998136482684458,0.327435652924472,-549.9212913850738
1.374093060727415,10.37323302215987,0.000639277275702399,-807.3218092584927