dN/dS,LRT,p-value,Log(L)
0.1733793852814195,5.993389810284327,0.007179790963973254,-52.2711640930202
2.731941657024047e-16,11.53199763828356,0.000342042332030057,-12.83591303215541
3.17603086687411e-16,11.53199476030616,0.0003420428615398818,-36.4961619236725
0.2745828584059712,5.364110343004462,0.01027763541247173,-26.38100374241287
0.1375391496786772,8.527614075424552,0.001748989819624402,-15.13566492284503
9.555848176237971e-17,11.53199763769502,0.0003420423321383592,-13.65676303553063
0.3480682645198798,3.24733697759666,0.03576980033660732,-34.02623863948779
0.1731234716021675,6.007430743385981,0.007122877594985311,-32.23689404150165
3.17603086687411e-16,11.91270031270514,0.0002787626141826927,-9.528256807194888
1,0,1,0
2.731941657024047e-16,11.53199115358075,0.0003420435251309528,-12.60293917096592
0.1673369306724707,6.3342632216712,0.005921365103780163,-23.384503331682
9.555848176237971e-17,11.53199115833696,0.000342043524255875,-12.19607179929835
0.2757171760359928,5.321270837571397,0.01053332101185778,-22.07003331150953
0.4206219608734126,3.049952952663972,0.04036974087537371,-38.93158681826186
0.173270938835598,5.999377001671832,0.007155465528044136,-37.93097811321569
0.1370297248519029,8.572990985828731,0.001705931059097554,-20.05954250939765
0.1729696773945443,6.015885093998975,0.007088832956883229,-24.63750279829816
9.555848176237971e-17,11.9125233450215,0.0002787890979492058,-19.95022276382541
1.028145822447522e-15,11.5319915823606,0.0003420434462408917,-38.74043047898837
0.4631051874285221,2.321005167168465,0.06381876189792479,-37.81369447438141
1.225539673090328,0.3064554637399937,0.2899317216692621,-54.60181406067247
0.274138848220599,5.380166417266835,0.0101834675879996,-24.47540191859527
1,0,1,0
0.2756167470506983,5.323395429611338,0.01052048663853256,-32.44979354168287
1.7261668133952,2.220532098815426,0.06809305811827776,-72.03434297163463
3.17603086687411e-16,11.91266049874774,0.0002787685722442923,-9.726280734988405
0.7768958404458183,0.3442645025872508,0.2786889762933557,-53.08845306533784
9.555848176237971e-17,11.53199761514626,0.0003420423362869851,-13.00559758808633
9.555848176237971e-17,11.53199120230028,0.0003420435161671787,-11.87120136746802
3.17603086687411e-16,14.54909158078205,6.827723790675533e-05,-20.1938204276218
1,0,1,0
9.555848176237971e-17,11.53199764842242,0.0003420423301646602,-20.53241749703425
9.682324783204268e-17,11.91205094346576,0.0002788598067590131,-19.29493162869452
1.081069046194472,0.0469694971027792,0.4142115373716379,-55.98406975276325
9.555848176237971e-17,11.9125147978992,0.000278790377117033,-14.79512183163309
3.024895806035525,13.73827175102736,0.000105064374183006,-103.0653775130777
0.725397876650423,0.5702782559668549,0.2250741830545971,-53.78146436000547
0.1680341080147879,6.293709240463869,0.006058360955776443,-26.56603541888817
0.4195432612190719,3.066566266406184,0.03995905573267333,-51.42724694845106
6.771941737530898e-17,11.91098754050902,0.0002790190425986938,-24.56300991186818
1,0,1,0
1,0,1,0
0.3473567269799394,3.262608734857764,0.03543814344656482,-54.6916128968972
1.108136262588803,0.09070940450550324,0.3816386122881639,-70.91420041769346
0.7488008145690495,0.5501812533424015,0.2291218218119749,-51.23619592865931
0.1656327970493109,6.43831746642131,0.005584219006756319,-18.20589451936321
0.1676328086636645,6.318974374823881,0.005972635021568529,-14.66372439598237
0.8329750261360196,0.2113875147919799,0.3228410255742471,-52.69481720364988
0.1729221369639311,6.018369092312746,0.007078862059028357,-21.94809919301713
0.788675169088065,0.241764070202251,0.3114674517940215,-36.96979966693817
1.390183930408605,0.8676530901157946,0.1758029264644144,-77.64740809389592
2.353347208857827,6.063282353056621,0.006901046089697382,-96.40959086215534
0.69569968923298,0.7396340670900088,0.1948890623676235,-53.29490832703463
3.17603086687411e-16,11.53199522469856,0.000342042776097784,-16.73708799368956
0.7502027743523663,0.4515671494546893,0.2507958390763407,-55.57297173108606
0.4411647175921735,2.670502608785753,0.05111186836845572,-38.77957818341491
1.007307028042368,0.0003651522210930125,0.492377093214596,-63.72876861638593
0.1535772556983606,7.233176634383426,0.003578422964083672,-37.00722832713963
0.1727481322572124,6.028563961243819,0.007038090248799311,-37.96481850204214
0.9074010797928534,0.05799207110305815,0.4048490852343131,-52.00345360677892
0.5522882257155547,1.723226725179998,0.09463911198723463,-35.70984918768927
0.3067105112237515,4.286752525949851,0.01920523246273026,-38.57069416149026
0.6480910179251772,0.6482912910303611,0.2103621254182554,-31.71365685554845
0.1738666673774885,5.967122773151566,0.007287521676655806,-21.82110599710569
0.1675665486887933,6.322588424538282,0.005960474599531862,-19.26043333299549
0.721069685209352,0.7126271513023852,0.1992865192999589,-59.23176319048827
1.445682765045326,1.072378766990539,0.1502043781416255,-60.36653752135403
0.1560009169261289,7.069576231439484,0.003920189862769319,-31.92180193813195
0.5056132300090694,1.760226362558072,0.09229814187755636,-47.8430150735119
2.903459720278181,13.75920271881279,0.0001039001411483609,-141.1739901612141
1,0,1,0
0.1674309616473329,6.331032746960236,0.00593216045484074,-12.85477618454286
0.7576945621758369,0.4194745656083967,0.2585996711653235,-53.04511091178995
0.5818862477660882,1.051958004240298,0.1525282857900681,-25.93110346709278
0.8461057448223721,0.1465650531309137,0.3509198844993071,-36.69285133253317
0.1675185584319243,6.325759654113369,0.005949825105707796,-18.6394674987345
0.6101298293191826,1.152518411044639,0.1415112889935452,-35.04842694782507
2.821823874619799,12.34803593755419,0.0002207253302784484,-123.9738693582046
0.1729126436163236,6.019242416916569,0.007075359918705171,-59.85319388633221
0.6880148754737359,0.6305244336065812,0.2135815067569042,-50.16221547572188
0.7980189915742377,0.327072964871391,0.283693868437142,-51.27869026696435
0.5603284400432818,1.629930101349771,0.1008563584272484,-47.70326967025406
1.159972708601657,0.2069079954212896,0.3246008778424515,-65.56310977894147
0.8524047555820601,0.1335005294371427,0.3574149132389743,-48.33446852615292
0.3354834670654908,3.528295481930712,0.03016488982636967,-36.32117757455281
1.292610708057066,0.4793624696468015,0.2443556168480839,-60.85543332974041
0.1526673293156473,7.303644795031605,0.003440743912856425,-14.80785246864043
0.3072430288622433,4.272504503654716,0.01936690028699795,-33.03744522683109
1.938175367037116,4.215800164890737,0.02002458649184474,-83.56608792121446
1.217460781785572,0.2512340656082728,0.3081037356715199,-57.28138259299245
0.708863885095022,0.6618681056804121,0.2079506027442841,-40.29443109855125
1.028145822447522e-15,7.511125326356492,0.003065952454678889,-38.07942530902057
1.174183646675978,0.1449410164782705,0.351708779283716,-41.11257642576984
0.4424647121097754,1.769094954212925,0.09174706265666716,-18.51551269594076
1.199308782295776,0.2156187856841427,0.3211993274301993,-88.66039133250672
0.9351071612504815,0.02737876470666833,0.4342888809127621,-68.8577911507026
0.7577930059976218,0.4191121929055299,0.2586901877493958,-51.99936161888507
3.163882690980251,16.60861688394672,2.297090856751005e-05,-108.002291645466
0.655255590176813,1.230876856734056,0.133618289068089,-37.82916424022586