dN/dS,LRT,p-value,Log(L)
1,0,1,0
9.555848176237971e-17,5.424268885267345,0.009929374279558589,-10.40573966878091
9.682324783204268e-17,5.42426930314976,0.009929371903273865,-10.95354393609808
1.028145822447522e-15,6.354267868940852,0.005854962815005749,-32.92263056455695
9.682324783204268e-17,5.424268887967472,0.009929374264204371,-22.65489606611339
1,0,1,0
2.287852447174094e-16,5.424268885124185,0.00992937428037266,-23.35145370120703
9.682324783204268e-17,5.424269132772316,0.009929372872123643,-16.4032825681377
1,0,1,0
1,0,1,0
1,0,1,0
5.840566125974614e-16,5.424269301197196,0.009929371914377094,-11.55565083913439
5.840566125974614e-16,5.424268882920444,0.009929374292904247,-12.88449608959124
0.314980015096999,2.034362772356737,0.076889310432047,-18.8965157175883
0.9058882537603934,0.03019756193369005,0.4310213596275261,-40.40928270258213
0.7302446358121932,0.2194146809145323,0.3197431322465322,-29.54599222639967
1.028145822447522e-15,5.424269302907021,0.00992937190465415,-22.65753119198831
0.3014393888955548,2.231190011302395,0.06762482201755898,-19.52531507607776
0.8355275250469318,0.1026340653113635,0.3743456308010156,-33.71853675162723
3.17603086687411e-16,5.424269136052249,0.00992937285347234,-10.66135724217649
0.3674041091752491,1.437098259323108,0.1153047414888066,-32.61839218176193
9.555848176237971e-17,6.355473103873518,0.005850986728309582,-10.72483165634799
0.2782884103595448,2.622159704925885,0.05269046180191522,-24.84341258158863
1,0,1,0
2.287852447174094e-16,5.42426913605189,0.009929372853474339,-10.66102595327102
1,0,1,0
9.555848176237971e-17,5.424269136052253,0.009929372853472285,-10.6613572365741
1,0,1,0
5.840566125974614e-16,5.42426888377733,0.009929374288031589,-16.41323618051236
5.840566125974614e-16,5.424268884748038,0.009929374282511616,-28.66548869985028
1,0,1,0
2.287852447174094e-16,5.424269303149728,0.009929371903274031,-11.09948365404769
5.840566125974614e-16,6.355424716921519,0.005851146304107269,-10.58015552093012
1,0,1,0
1,0,1,0
9.555848176237971e-17,5.424268882676095,0.009929374294293747,-11.10226594983401
0.7407227599532936,0.1989753521989144,0.3277745932340236,-33.78714586620345
6.728744545674702e-16,5.424268883286061,0.009929374290825188,-18.19716221899519
0.6546187596020168,0.621768605299323,0.2151954098020637,-27.10960208825727
0.3147911040018385,2.036970831938767,0.07675754396990841,-25.53216842918616
0.5569251817261778,0.8387681366487598,0.1798746611014294,-26.46370592893903
0.3807555827435782,1.317494420571293,0.1255211097080094,-18.12856689456662
0.3008698001401225,2.238977821823028,0.06728495665254275,-40.51445790589994
0.3146460925816916,2.03909546784304,0.07665039062209905,-19.44318491285802
1,0,1,0
2.287852447174094e-16,5.424268882676095,0.009929374294293747,-11.10226593365412
1,0,1,0
0.2717963446302529,2.747265926821406,0.04871044309532341,-24.86986889429101
0.7224445827471058,0.2357882224208012,0.3136323852992794,-27.51853100305245
0.7979035836617153,0.1646708388614826,0.3424460474291141,-26.31548368025944
5.840566125974614e-16,7.367253578150649,0.003321115163131716,-10.14926053732094
3.17603086687411e-16,6.355170282754663,0.005851985478534438,-10.03052752977846
1.210883399689075,0.1370322557050798,0.3556246801871403,-40.34559042128162
1.111958291908171,0.03249435288397251,0.4284734822155228,-41.31508404570138
1.108805693551023,0.04106492013097807,0.4197063305607573,-42.80166565350441
1,0,1,0
0.5580865826607452,0.8321655353300272,0.1808235442532458,-27.15222459520037
0.5561050034359338,0.8434564195212388,0.1792050503190626,-26.22743827326298
1,0,1,0
0.8358988504658382,0.102110705256905,0.3746556293992206,-32.15164045891874
0.2778679891000735,2.630255005613456,0.05242243667033741,-25.71519194631449
0.9034995086180369,0.03186767180486783,0.4291591978360592,-25.15997031437465
0.2782650824754042,2.623157648969318,0.05265734012718365,-19.98097850851359
4.310414096849517,19.30553948991067,5.56913679711224e-06,-97.2871319504661
9.555848176237971e-17,6.355473102545552,0.005850986732689023,-10.72482945180859
9.682324783204268e-17,5.42426913629258,0.009929372852105711,-17.75876008644435
0.7380270877915504,0.2040998197301889,0.325715872057601,-19.57132087506895
1.244643380326917,0.133122321475291,0.357608211952007,-30.4215138268649
0.2761466104945741,2.663914489078259,0.05132391750756099,-18.95150133998298
0.4956717964538749,1.259676591899094,0.1308561581311956,-28.38654224332166
0.271398286756553,2.755633924535271,0.04845619850038357,-14.15172502417672
0.3587470532278173,1.521250556547358,0.1087151724406019,-18.38812509385007
1,0,1,0
0.7393782111863558,0.2015187150459781,0.3267488828140459,-27.81854751493003
1,0,1,0
0.276367539601646,2.659686246511569,0.05146051722275696,-19.96753404272713
9.682324783204268e-17,5.42426930254231,0.009929371906728102,-12.67580435483725
1.946151870117917,2.507068510499863,0.05666829227382231,-46.00064547850815
0.4335597391937125,1.878384403992257,0.08525894224344938,-19.14980237434386
1.10705404877794,0.03983032024235911,0.4209063539776634,-43.87011984979885
0.2777890961022166,2.631478576374136,0.05238205592965156,-30.04194487396957
9.682324783204268e-17,5.424268888700112,0.009929374260038204,-22.65286837005638
1.116243331937139,0.04649556325483672,0.4146387477057875,-40.13828409552215
0.5582132675044551,0.8315452648901598,0.1809130399478363,-20.52021146359768
0.7607351414363279,0.1635923671332833,0.3429352093704086,-20.69431449253965
0.7441363638759837,0.2891281633016689,0.2953898830605389,-34.44778858160391
0.5529273874955847,0.8622137209790495,0.176559969110234,-25.40524408926981
0.3685482365546373,1.426613141685294,0.1161589859195126,-23.66512645599579
0.5562003552091066,0.843034884720943,0.1792651162189968,-19.84824941504159
9.682324783204268e-17,5.504004583773582,0.009486488172636032,-10.35794758372738
0.7628914833419391,0.1600603798830633,0.3445504663086366,-57.62768430504113
1.909568349825162,2.038949505071301,0.07665774664474118,-63.40875399969969
1.286315178568726,0.1746076033001316,0.3380244669273149,-46.26864317664803
1.017601851097736,0.0009054408364761457,0.4879974210688094,-25.30793577723761
0.5559188694601891,0.8445405136948949,0.1790507011294587,-25.40503829614947
1.213642155773071,0.1402881427928691,0.353997363646292,-30.55731899674168
0.7378644817889179,0.204412114354156,0.3255914195594557,-19.29927479708709
0.6054478825710091,0.5980887495381921,0.2196540926523878,-21.28349564266303
1.510025473677877,0.7405700043878625,0.1947391733039626,-53.06383324751468
0.8373377330490203,0.1000501951393176,0.3758847031283144,-51.15035763560515