dN/dS,LRT,p-value,Log(L)
0.269823541891581,2.786808096859964,0.04752168471828316,-27.82967892110021
0.7479610887843562,0.2785848826503283,0.2988151191361078,-29.99717128348394
3.17603086687411e-16,7.576348216108656,0.002956956450022419,-16.69712408900392
9.555848176237971e-17,7.576727547570254,0.002956334236795755,-10.67333069327401
9.555848176237971e-17,9.103613367026675,0.001275525177094616,-10.72430023483922
5.840566125974614e-16,7.414099926007363,0.003235734052540129,-12.68336604045756
0.219754607074247,4.062021846527429,0.02192897887145306,-26.4682901536035
9.682324783204268e-17,8.001981374194393,0.002336309601531916,-22.90047316004471
3.17603086687411e-16,7.414099928383688,0.003235734048266437,-12.68752712550498
3.17603086687411e-16,7.575739586671148,0.002957955057363792,-28.03876570974186
5.840566125974614e-16,7.414099114871298,0.003235735511331994,-11.74314688912521
0.2701944226490523,2.779407193772798,0.04774175234535677,-26.90391452078606
1,0,1,0
3.17603086687411e-16,8.003615201558002,0.002334202527727869,-11.19614000192809
1,0,1,0
2.513042470271359,7.636648853192014,0.002859703891593068,-75.71445334716972
9.682324783204268e-17,7.414099114871401,0.003235735511331772,-11.74306830582861
9.555848176237971e-17,7.576345237007697,0.002956961337137687,-9.975603938820504
1,0,1,0
9.682324783204268e-17,7.414099932248305,0.003235734041316107,-23.84655657143026
0.5411213558835251,0.9334576668828518,0.1669830307027701,-28.01046253586665
0.2695914652195466,2.791460293791971,0.04738391592124708,-19.91671337581514
1,0,1,0
9.555848176237971e-17,7.414099117929279,0.003235735505832338,-11.04647219580768
0.4401191510617593,1.801046151074289,0.0897930359102696,-32.29295177922847
0.2196550077947114,4.065503633008738,0.02188381582204318,-19.23270778330794
0.2477628040834853,3.274287525960837,0.03518673848983384,-18.95173297290119
5.840566125974614e-16,7.576349253318853,0.002956954748515817,-16.69986036253546
0.7461264009146321,0.2834967674756399,0.2972092086608857,-34.17181139887432
0.4394199549415393,1.809543225752108,0.08928151701436082,-21.94620631752056
0.2695734321679851,2.791828460252702,0.04737303172476531,-32.08717969957402
2.287852447174094e-16,7.576496843525149,0.002956712642187997,-16.68415558790749
1,0,1,0
0.2698886985229339,2.785505273987237,0.04756034423811678,-15.24150378515816
1.143732937471066,0.06874448410255241,0.3965868285748032,-48.96419595541977
0.2698507567180273,2.78626587139572,0.04753777037360285,-21.45550851831045
0.7453612733550783,0.285440806443404,0.2965785463401397,-62.19184856469366
1,0,1,0
9.555848176237971e-17,7.414099565666433,0.00323573470059707,-30.12765749642563
0.2195867057960412,4.068280710403865,0.02184786387886734,-13.41777676618017
0.2883921980175737,2.441835861419108,0.05906894494433407,-35.84894253661722
9.555848176237971e-17,8.003339251108198,0.002334558272742315,-10.84728181988367
0.439770962940318,1.804930397265906,0.08955878750371715,-37.78541038797465
0.6383882811721234,0.4689819400302824,0.2467279484700713,-20.07288883308634
1,0,1,0
0.5388932866409567,0.9474816066930956,0.1651805810911425,-22.8282402952067
0.7466947075345798,0.2819892988354411,0.2977001572308422,-33.41247899545829
0.9701682871529947,0.003694282227442613,0.4757669674374788,-38.74220824115694
0.9606891659078075,0.004871792977731104,0.4721771278119711,-31.53453090797459
0.7450773943235407,0.2864284375805539,0.2962592074920949,-28.84926754585607
5.840566125974614e-16,8.001293097238566,0.00233719782127878,-15.48243141761548
5.840566125974614e-16,7.414099911000584,0.003235734079529151,-17.60135668322257
0.6299497370472102,0.7504056585731007,0.1931739136538071,-29.53475948679855
5.840566125974614e-16,8.161510021795181,0.002139436544543571,-24.17856392443483
1.243873517764134,0.2208309539271767,0.3192037506688715,-57.0061948837061
0.528736256752962,1.013649311637785,0.1570150807500119,-26.19590400279401
0.2194956393866653,4.071060108587144,0.02181194410634352,-12.94684259343592
0.858336418736199,0.07345874780047268,0.3931829245752146,-51.80568791897011
0.5820142588039539,0.7061184636777682,0.2003677036658327,-33.95043719742443
0.8937925967575396,0.05222567762601216,0.4096173591231171,-34.56591778209441
0.5401748146515961,0.9393914684043523,0.1662171948054105,-52.97978843395542
1.232339257159151,0.2029510401923034,0.3261746609897535,-50.92656401850935
0.2094968360345867,4.413587986008054,0.01782688746457139,-20.49876567141079
9.555848176237971e-17,8.003615153255588,0.002334202589992729,-11.1960690855726
0.2196041233507871,4.066716395565024,0.02186810779184323,-19.23358380384359
1.403669737615117,0.513688612417937,0.2367732144768475,-56.32189777270156
1.436755125010142,0.5815752575937694,0.2228477659402795,-41.3844191493945
0.8292555643956824,0.1489907341598666,0.3497508602835051,-39.61571715722979
0.2505006489035127,3.207559146858699,0.03664937710037308,-41.17771001932153
0.1856501221750622,5.394529525401101,0.01009998524784972,-12.05477671188003
1.758891604849117,1.593583798415736,0.1034074277247257,-52.51563158550432
0.9166094044972042,0.01556720745224993,0.4503533671419281,-34.54515782896604
0.3727659593445758,2.777085544622977,0.04781101558475293,-20.80804737688178
1.102263990355566,0.04588204330153189,0.4151951809967315,-51.89890054111913
0.5400362178382413,0.9402660467716402,0.1661047153417033,-47.31138307476367
0.7942119521534219,0.1717360952832792,0.3392867357816538,-39.71953447313162
1.190985280425036,0.1724909827372869,0.3389537075327173,-45.2815513748138
0.8753973327329548,0.05545028196640089,0.4069185519493589,-29.8370461807951
1.375077435348729,0.4559157857781457,0.2497694738608043,-44.95076092134693
0.7516413491465715,0.2689253904145232,0.3020267709987366,-34.1122793637802
0.7277957483308178,0.3361119559852028,0.2810410593132077,-39.16507284709353
1.11718841925172,0.05901316729720918,0.4040312615366934,-39.93769446185696
0.1855571759977063,5.398921712866077,0.01007459822233892,-12.57959737796394
1.088302804891287,0.02790651682256851,0.4336643947716681,-34.31826444774247
1.387623157987727,0.5770231034090756,0.2237407703701252,-45.13735728059316
0.5738990470578164,0.746399841437146,0.1938092307847062,-26.28697463306244
1.745991065330014,1.814798506513881,0.08896683719341841,-51.86563337794335
0.827945939802301,0.1516092082049596,0.3485011301722558,-39.07812108258273
0.3714285681270543,2.801292866653284,0.04709416496746299,-18.67982886425398
3.135049781128523,10.09976230966268,0.0007414422466980319,-68.63920806147409
0.6298350523871656,0.7509145185758115,0.1930934216078342,-33.50593824737293
0.8224915592584873,0.1220797045263495,0.3633948687213769,-27.90243981704558
0.4207635774701882,2.040183029391052,0.07659560643609659,-22.24410915264118
0.793564214876519,0.2303190444310843,0.3156436813744338,-45.72113095182942
0.6945616441260447,0.4504694653933115,0.2510560485305984,-33.07826531824394
0.5581530711935354,1.247768875682524,0.1319895191000701,-28.4277717346262
0.5005349165318306,1.219980500200805,0.1346822394765015,-37.25195995558337
0.8821413799563683,0.06542808208310191,0.3990568315823461,-41.49571311037212
0.7674826546547172,0.2294961553799624,0.3159488367977329,-42.74304597665175
0.7960625026380761,0.1681209494190696,0.3408936035619572,-29.43160833525887