dN/dS,LRT,p-value,Log(L)
0.01510410269143992,839.7194105427932,0,-714.5647967949318
0.08510776898032389,634.3149981357178,0,-1226.501705531793
0.04801957273837917,726.0622990533102,0,-1105.839724820761
0.2676922671043314,379.5145127115179,0,-1532.691362863792
0.03925044788358312,751.7246506575934,0,-1160.498263301288
0.04818946391638539,723.0324349474704,0,-1278.232473869771
0.01969967882730741,811.8214857836024,0,-1029.472658566782
0.02847547710170504,781.5477754651915,0,-942.972659033848
0.00437328224325723,875.3403061921379,0,-956.4519489789658
0.1715074336632111,534.6759401315976,0,-1273.323004445184
0.03024097493927594,785.9677700079296,0,-589.3672411333288
0.2834527341898054,356.8245343611188,0,-1514.716063063358
0.2810980893063987,366.9867538443596,0,-1509.423163901841
0.05411700795019121,714.7258383629703,0,-660.4722552578274
0.235413551131165,385.2462316534316,0,-1489.020847441795
0.04980434364321754,726.2748374871594,0,-700.4920516674285
0.3614591813528085,252.0329972139216,0,-1650.304899845544
0.2441929847951639,372.5040127968141,0,-1387.719979959708
0.02590766752621272,800.4962199950278,0,-687.0568118711888
0.1015588267288664,593.2109930648107,0,-1330.946819818635
0.1105023785592929,574.1637154532382,0,-1474.10531878222
0.1081443917600902,579.3748198104868,0,-1373.411554011687
0.4485067816368353,175.2984186960557,0,-1894.64540678082
0.1107180935737199,582.7927041966464,0,-847.4396003287154
0.1826682218478635,455.6474246546577,0,-1206.626438085516
0.4419498367795057,177.614188791878,0,-1806.274867387614
0.1804616204301804,460.0647516690437,0,-1475.216751520631
0.3252128780158315,321.3181516654163,0,-1727.397665281031
0.4053976901318102,224.2970968325021,0,-1742.665929882669
0.0955041740065091,614.4302864465087,0,-861.9106936316485
0.1081051586630221,580.2247849611636,0,-1390.032671976044
0.4803167027400216,159.9203310037669,0,-1909.545681504933
0.1256035221517916,546.2620997934046,0,-1310.504131448462
0.08027669238695949,648.4955726104579,0,-860.6416108448481
0.2688804256384743,339.6261635639025,0,-1480.064291104342
0.5769392001220225,97.17078770501303,0,-2037.638012331534
0.1927752646863969,432.9068034521683,0,-1507.792150762139
0.1619894889483993,480.6719762815692,0,-1452.700219496905
0.5657416909981513,125.7544169945904,0,-1938.884315994796
0.1350014695569345,534.8863513986885,0,-959.4821645531511
0.4330478884553235,201.1877158378402,0,-1787.379191614009
0.2432646073415028,368.3338771699077,0,-1667.723322799028
0.2124714571042415,405.5985258136539,0,-1441.684189995545
0.1611526473053085,489.6295468873795,0,-1038.666188347622
0.3257810747513773,281.2024678363941,0,-1889.59829774879
0.6378124847464959,67.32187873995917,1.110223024625157e-16,-2253.124150025234
0.8036328407817941,16.49496013849512,2.438978231139588e-05,-2369.668922378052
0.7310500741020234,36.33518985334467,8.306844101468869e-10,-2279.610788664907
0.9294756425458702,1.763827174195285,0.09207393178736772,-2685.237862513099
0.161371415485229,488.7348271634487,0,-980.949642255455
0.1746833561450695,466.3042383425181,0,-1204.758570680171
0.6289424368626111,72.87821603580232,0,-2280.366391810143
0.6224844625364718,79.0400957191232,0,-2064.280975639738
0.3909774912170221,212.6532981339456,0,-1638.2264833238
0.3607838224911029,237.4228103284486,0,-1909.863933185967
0.6710935466196389,54.92505352283933,6.261657858885883e-14,-2251.345436261386
0.3810340325897013,224.2538313262526,0,-1660.955186952108
0.9486089055253881,1.011889421351952,0.1572253086707343,-2970.028324337602
0.690296521524571,49.69915466821294,8.961165143261951e-13,-2372.603729416518
0.8047960916112175,17.6804216867431,1.306511597493065e-05,-2437.212322693834
0.6853558908284297,48.17107499193662,1.953048833769344e-12,-2427.808365932256
0.6095272419022546,85.73960250459459,0,-2281.801102344982
0.434727219651579,179.631821503699,0,-1742.845363584609
0.5222016326304427,120.5080217386549,0,-2209.920533208479
0.4342719285417119,180.9864288099452,0,-1797.694962856551
0.3143288412605139,292.296643657804,0,-1597.176612506109
0.9577073415821431,0.7168304769202223,0.1985927711430971,-2540.989054887055
1.023356561953575,0.1785985290434837,0.3362902095593565,-2729.502509047819
0.8738260109773159,7.599141531180067,0.002919804943292192,-2583.156270256069
0.5285814715452618,114.4211167959738,0,-2004.301441634776
0.5440190608661856,101.1619752408292,0,-1911.987560380173
0.7344838210668199,35.22611720013811,1.46780065879426e-09,-2262.585335695655
0.7598126236098589,30.22416363230604,1.924421377808017e-08,-2529.37661478944
0.5310288865503082,117.0245696761876,0,-1950.897795448269
0.5222685719917544,118.7367789780283,0,-2194.986123990838
0.9312937298005336,2.058534959202007,0.07567781450299532,-2635.62565770809
0.634870305406863,74.16030241242515,0,-2242.136692222835
1.011565223531314,0.0563000989086504,0.4062211774489676,-2804.676146414189
0.7945498200300607,21.18734077260251,2.082532579772423e-06,-2500.353613207893
0.7024439569750872,42.67580424623884,3.230327116909848e-11,-2346.266086687966
0.5718695136729199,108.2286702044839,0,-2256.06733907252
0.6822156517681345,54.66399562175866,7.149836278586008e-14,-2384.598273741157
0.6769139983531531,59.89150270241862,4.996003610813204e-15,-2259.26538379451
0.7597288255784546,29.89679568394331,2.278326316496049e-08,-2577.837644844372
0.9292609519878691,2.229451053962293,0.06770097333847896,-2656.350876331907
0.7362127789921376,36.10606846841165,9.34320065759664e-10,-2476.727856210746
0.8041690167777492,18.03709224990052,1.08321242965892e-05,-2553.106650472953
0.6401912846108109,79.22764576627924,0,-2174.569925632588
0.7223479504624064,35.86150946216185,1.059264231884072e-09,-2151.980154321781
0.9290219459374368,2.326628683063063,0.06358852392457343,-2774.926862251995
1.017235591443987,0.1241567957868028,0.362284559766582,-2851.709858192684
0.7954148330401576,20.48579565889486,3.003771325948978e-06,-2541.178944201863
0.9287410924541051,2.38816801782832,0.06112841266335511,-2760.450261154503
0.9614047144811153,0.6275818560889093,0.2141218473803496,-2913.024108877499
0.8490923867543519,11.59006335836875,0.0003315257655533976,-2589.351326446261
1.06542087691668,1.721540886989715,0.09474740991351455,-2915.786840320477
0.9227476089457644,2.650615167953219,0.05175491638543706,-2841.701760426575
0.7750914559783163,26.60416763179819,1.248522626395854e-07,-2540.604346921551
0.746761375230156,29.42929291056498,2.899719436788573e-08,-2202.062876281412
0.7450208899128076,32.32425197533576,6.523733886432126e-09,-2447.62096986611