dN/dS,LRT,p-value,Log(L)
0.02120160127223891,242.9230643760633,0,-204.5603489738273
0.01850660662789736,281.0401672283301,0,-169.7781577778008
0.04204585457863751,224.0359251512592,0,-262.1648811021226
0.0852634287931084,188.3526295989424,0,-342.6935027653391
0.04147462311650126,227.7055820054073,0,-213.7027844463791
0.2755817171095855,105.0409771496787,0,-437.8919452507691
0.01393595477981392,253.99451949016,0,-232.4068634341819
0.07830672318667575,192.6346557736512,0,-290.162434923446
0.007007622228339877,261.6910696694815,0,-237.4180983353639
0.01232533996597191,289.790736657814,0,-137.3839426240515
0.02461802686557036,274.3257122506054,0,-164.7694401736542
0.2280423583702162,141.0505816800261,0,-387.8445082581409
0.1049158905946842,177.986888599744,0,-365.59441545851
0.02807615196861291,237.412137158019,0,-215.0413553529596
0.05597525667095982,239.0871425881709,0,-230.9603455308813
0.1371351818487376,154.3422260010253,0,-302.7981471387492
0.3780974777029929,76.62562097411433,0,-450.3547135876331
0.1495376750881145,149.5754751058378,0,-380.1933874590688
0.4090919618500327,55.94220577105011,3.730349362740526e-14,-518.3680999708
0.1375061724853242,178.5399358936312,0,-239.2340780628365
0.3889183749574722,69.17344702933235,5.551115123125783e-17,-477.7186192574532
0.2231432952604802,113.5871422362485,0,-335.8830945057876
0.5781788807150381,31.50318104659368,9.955689883600627e-09,-580.5256417309778
0.3744993617464439,65.89373785460532,2.220446049250313e-16,-408.8913098066935
0.16968592314808,140.5601054275726,0,-314.7565098368555
0.3901095821711028,76.88476069491742,0,-473.6707760791816
0.2108358389955202,140.4815986940866,0,-342.3714911589934
0.1196619072284497,188.267890435502,0,-271.3063002032645
0.1658784367781541,146.2892250252125,0,-385.1096075873851
0.07084109723040405,198.7226870692125,0,-283.1909722232892
0.1071381678349776,174.5614162609936,0,-290.3837067305974
0.2295416690374656,134.5093608889453,0,-334.9150537081576
0.5862332723155793,27.52820701292694,7.741001395444869e-08,-569.5899841862899
0.5460515534224156,34.8708000528236,1.761626955421036e-09,-554.9515035895053
0.3732247163761196,63.92701511992891,6.661338147750939e-16,-466.3567444937407
0.3548682188883643,82.94618913408908,0,-440.1854104015931
0.6496354676755329,19.12125444652338,6.1335573303678e-06,-571.6375952285881
0.6534464586046053,17.6970138284305,1.295164638570601e-05,-562.5246532525082
0.5413391646715301,33.68550995778662,3.239072121630215e-09,-492.9804701216829
0.3930439785503495,60.06520851231255,4.6074255521944e-15,-482.9094267968196
0.5295934977874385,36.61938398855341,7.179833949599868e-10,-504.2950190511407
0.3157634596299557,98.019301075469,0,-405.3651404070596
0.6049524896217587,23.65220780291429,5.770671180904685e-07,-519.0437842422457
0.6078219675052263,24.97491170441754,2.904059343555865e-07,-598.3998091903723
0.1528445043464308,165.6733302609671,0,-265.2393106437538
0.4711725009362169,49.85817016259284,8.26338997228504e-13,-494.2565194475
0.4660603550088072,49.15597931716809,1.181998943167173e-12,-492.0120335240899
0.4428484038738587,56.65362881930014,2.597921877622866e-14,-472.0528928390494
0.5513939985548069,30.67043049865197,1.528948762041793e-08,-543.0521842986246
0.2693425931973144,107.20538455544,0,-380.459518796719
0.1808457881336975,132.6031308432237,0,-288.7156208177951
0.7024440978167285,12.57356028734557,0.0001956212632600596,-600.4466430071781
0.8039521390707842,4.987095160409581,0.01276852174701881,-592.7393788396145
0.5412432712133233,31.25574926631407,1.130883359179435e-08,-552.8315151836407
0.2793135027836177,104.50044532161,0,-388.1984911968057
0.6671640155507098,16.90057885765168,1.969478441732342e-05,-603.9314708657083
0.3204747748708532,94.77782003112179,0,-449.2061761122491
0.5730889749569122,30.34710383873744,1.806229676937221e-08,-572.9435116186393
0.7809660117589395,7.083623389678451,0.003889577750259332,-645.3402626864389
0.2879492391834031,102.9187898440297,0,-350.7980591186117
0.5540644317192039,32.3870540649682,6.316262957106744e-09,-547.1690644672661
0.6177556046519364,22.43509791384645,1.086826979190825e-06,-552.433802456434
0.3572884140216578,70.04000435305454,5.551115123125783e-17,-433.1954635957838
0.2737870095368359,119.8380133087564,0,-399.7039474559215
0.6627793968302559,16.24794832478165,2.778486878873832e-05,-613.7241559936435
0.7825811125850104,6.209536892582264,0.006353193339758312,-659.8431396787386
0.6357570247364832,18.1920111003808,9.985740832274548e-06,-520.9985995491743
0.5029979949813675,42.08421998670315,4.371292217086875e-11,-534.6298331491811
0.6495844820856354,20.93442295807336,2.376383868685217e-06,-555.7431540283623
0.9456949290363242,0.3588247285124453,0.2745798383899318,-666.1793770982172
0.8454984684678243,3.023121740433453,0.04104265834914556,-617.8026804083763
0.6504638535590448,19.72033954334393,4.482109361103603e-06,-578.4106962871265
0.8073462071969805,5.322199878265565,0.01052770680996307,-633.6651626329439
0.7243294117256103,11.80846712784705,0.0002948097859131749,-625.7158248033502
0.7120536768420895,12.82182951271602,0.0001712992787772927,-618.1399247511708
0.8845243753566981,1.712074817482517,0.09535819737847301,-631.9509993837305
0.5203791965707163,39.65940525989663,1.511725744585135e-10,-523.0588388218434
0.8806745722851286,1.905099551670673,0.08375431300580355,-663.884422942903
0.9543567695323042,0.2575639982283064,0.3058993408028808,-689.0752995110124
0.764641422548605,6.800072899755151,0.004557707528028476,-594.4225917902268
0.7157028764971171,12.74818628846788,0.0001781772759929523,-600.504517480972
0.6343137544367652,24.24304205624389,4.245664031454766e-07,-572.3701228528682
0.8523648556433786,2.702787838917402,0.05008647292339147,-596.3121685606995
0.80565056033524,5.349147069623768,0.01036620513031739,-689.5812678194646
0.8102538820111411,4.866738841828237,0.01368959705287504,-602.6503408945488
0.8980956790962592,1.380154289207894,0.1200374340418759,-669.056521640219
0.9712936830747209,0.09964973753994855,0.3761251841105667,-686.8336387872941
0.6610637070518414,16.32220143963059,2.671712003021742e-05,-565.4151515117803
0.8525603906670155,2.895580889186249,0.04441137657347216,-626.8005841733333
1.019349050342813,0.04739549771466045,0.4138294563877084,-677.9131509321451
1.00994121646064,0.01153616297710869,0.4572332366099734,-636.2490649539559
1.096352273914573,1.036719006779094,0.1542928869021084,-679.5557340858328
0.8084632920680014,4.233395003472651,0.0198180412126181,-501.1408000580302
0.7155595943026534,12.80954992110082,0.0001724272607006583,-601.2190277207802
0.6884810855226989,16.06950066413788,3.052978113449178e-05,-578.0280574976966
0.8615048668262508,2.482235972594253,0.05756923190297586,-673.814781094553
0.8194072017609131,4.498954675071673,0.01695779013710819,-657.8475319436873
1.065851365412894,0.5037629500220646,0.2389256822626481,-657.4530934551206
0.7716343521504518,7.49219081520755,0.003098356059179019,-644.2920949175003
1.006815009382741,0.004936903456837172,0.4719921252484595,-559.6829105402934